{"learner":{"attributes":{"scikit_learn":"{\"_estimator_type\": \"classifier\"}"},"feature_names":["annual_inc","pub_rec","pub_rec_bankruptcies","int_rate","mort_acc","funded_amnt_inv","loan_amnt","dti","open_acc","installment","revol_bal","revol_util","fico","A1","A2","A3","A4","A5","B1","B2","B3","B4","B5","C1","C2","C3","C4","C5","D1","D2","D3","D4","D5","E1","E2","E3","E4","E5","F1","F2","F3","F4","F5","G1","G2","G3","G4","G5","MORTGAGE","OTHER","OWN","RENT","Individual","Joint App","car","credit_card","debt_consolidation","educational","home_improvement","house","major_purchase","medical","moving","other","renewable_energy","small_business","vacation","wedding","36","60","Not Verified","Source Verified","Verified"],"feature_types":["float","float","float","float","float","float","float","float","float","float","float","float","float","i","i","i","i","i","i","i","i","i","i","i","i","i","i","i","i","i","i","i","i","i","i","i","i","i","i","i","i","i","i","i","i","i","i","i","i","i","i","i","i","i","i","i","i","i","i","i","i","i","i","i","i","i","i","i","i","i","i","i","i"],"gradient_booster":{"model":{"gbtree_model_param":{"num_parallel_tree":"1","num_trees":"100"},"iteration_indptr":[0,1,2,3,4,5,6,7,8,9,10,11,12,13,14,15,16,17,18,19,20,21,22,23,24,25,26,27,28,29,30,31,32,33,34,35,36,37,38,39,40,41,42,43,44,45,46,47,48,49,50,51,52,53,54,55,56,57,58,59,60,61,62,63,64,65,66,67,68,69,70,71,72,73,74,75,76,77,78,79,80,81,82,83,84,85,86,87,88,89,90,91,92,93,94,95,96,97,98,99,100],"tree_info":[0,0,0,0,0,0,0,0,0,0,0,0,0,0,0,0,0,0,0,0,0,0,0,0,0,0,0,0,0,0,0,0,0,0,0,0,0,0,0,0,0,0,0,0,0,0,0,0,0,0,0,0,0,0,0,0,0,0,0,0,0,0,0,0,0,0,0,0,0,0,0,0,0,0,0,0,0,0,0,0,0,0,0,0,0,0,0,0,0,0,0,0,0,0,0,0,0,0,0,0],"trees":[{"base_weights":[-0E0,4.6103248E-1,-8.6908644E-1,1.1650989E0,7.26182E-2,-3.4062248E-1,-5.999821E-1,1.2184105E0,-1.868691E0,6.7727906E-1,-3.2625696E-1,1.2914471E-1,-8.873755E-1,1.2622107E0,-1.9596924E0,-7.845304E-1,-1.908878E0,8.864819E-1,3.3538923E-1,6.430027E-2,-5.9995884E-1,7.2540903E-1,-1.7990063E-1,-3.6869285E-1,-5.999431E-1,1.2956474E0,-1.9700214E0,-5E-1,-1.9795644E0,-1.8181819E-1,-5.625E-1,-1.7208672E0,-1.9925581E0,1.1957953E0,6.698304E-1,6.466762E-1,-5.9973574E-1,2.8520286E-1,-5.9990066E-1,1.2204465E0,5.314209E-1,9.874662E-2,-4.775081E-1,-1.9613118E-1,-5.9972274E-1,3.9694318E-1,-5.8835983E-1,-8.5714296E-2,-5.9653556E-1,-5.1111114E-1,1.6363637E-1,-9.67742E-2,-5.9739983E-1,-5.0769234E-1,6.666667E-2,-2.2941178E-1,-5.4375005E-1,-2.8695655E-1,-5.9925145E-1,3.6247972E-1,-3.847328E-1,2.9053846E-1,-5.996786E-1,2.7626488E-1,-5.996248E-1,1.6216044E-1,-4.3445792E-2,3.7106442E-1,-5.2771086E-1,1.7538813E-1,-3.5204884E-1,1.5991235E-1,-8.415769E-3,-1.3772033E-2,-5.9977907E-1,8.7855324E-2,-1.4074808E-1],"categories":[],"categories_nodes":[],"categories_segments":[],"categories_sizes":[],"default_left":[0,0,0,0,0,0,0,0,0,0,0,0,0,0,0,0,0,0,0,0,0,0,0,0,0,0,0,0,0,0,0,0,0,0,0,0,0,0,0,0,0,0,0,0,0,0,0,0,0,0,0,0,0,0,0,0,0,0,0,0,0,0,0,0,0,0,0,0,0,0,0,0,0,0,0,0,0],"id":0,"left_children":[1,3,5,7,9,11,-1,13,15,17,19,21,23,25,27,29,31,33,35,37,-1,39,41,43,-1,45,47,49,51,53,-1,55,57,59,61,63,-1,65,-1,67,69,71,73,75,-1,-1,-1,-1,-1,-1,-1,-1,-1,-1,-1,-1,-1,-1,-1,-1,-1,-1,-1,-1,-1,-1,-1,-1,-1,-1,-1,-1,-1,-1,-1,-1,-1],"loss_changes":[1.21661984E5,5.4255156E4,6.2895367E4,1.1410586E4,3.0838154E4,1.8423078E4,0E0,9.651789E3,5.159131E1,3.6346406E3,5.0356797E4,7.1095103E3,1.9125533E4,7.392422E3,2.6356445E1,2.9399172E1,1.504541E1,2.1119922E3,1.4022279E4,2.848051E4,0E0,1.2641338E3,2.1073384E3,6.360249E3,0E0,6.0632656E3,2.1177002E1,1.8547138E1,1.7487549E1,1.8837606E1,0E0,3.0944092E1,2.2211914E0,4.0285742E2,1.4780626E4,1.2351483E4,0E0,6.1956177E3,0E0,1.8371045E2,8.592092E2,7.2275745E2,8.0703994E3,2.729742E3,0E0,0E0,0E0,0E0,0E0,0E0,0E0,0E0,0E0,0E0,0E0,0E0,0E0,0E0,0E0,0E0,0E0,0E0,0E0,0E0,0E0,0E0,0E0,0E0,0E0,0E0,0E0,0E0,0E0,0E0,0E0,0E0,0E0],"parents":[2147483647,0,0,1,1,2,2,3,3,4,4,5,5,7,7,8,8,9,9,10,10,11,11,12,12,13,13,14,14,15,15,16,16,17,17,18,18,19,19,21,21,22,22,23,23,25,25,26,26,27,27,28,28,29,29,31,31,32,32,33,33,34,34,35,35,37,37,39,39,40,40,41,41,42,42,43,43],"right_children":[2,4,6,8,10,12,-1,14,16,18,20,22,24,26,28,30,32,34,36,38,-1,40,42,44,-1,46,48,50,52,54,-1,56,58,60,62,64,-1,66,-1,68,70,72,74,76,-1,-1,-1,-1,-1,-1,-1,-1,-1,-1,-1,-1,-1,-1,-1,-1,-1,-1,-1,-1,-1,-1,-1,-1,-1,-1,-1,-1,-1,-1,-1,-1,-1],"split_conditions":[1E0,1.100661E1,1E0,1E0,1E0,1E0,-5.999821E-1,1E0,2.6E3,1E0,1E0,1.4525944E1,1E0,1E0,1.5E3,2.2677835E-2,2.2677835E-2,1E0,1E0,1E0,-5.9995884E-1,1.100661E1,1E0,1E0,-5.999431E-1,1E0,6.03E0,1.5E3,6.03E0,9.861216E0,-5.625E-1,1E0,6.03E0,1E0,1E0,1E0,-5.9973574E-1,1E0,-5.9990066E-1,1E0,1E0,1E0,1E0,1.5685679E1,-5.9972274E-1,3.9694318E-1,-5.8835983E-1,-8.5714296E-2,-5.9653556E-1,-5.1111114E-1,1.6363637E-1,-9.67742E-2,-5.9739983E-1,-5.0769234E-1,6.666667E-2,-2.2941178E-1,-5.4375005E-1,-2.8695655E-1,-5.9925145E-1,3.6247972E-1,-3.847328E-1,2.9053846E-1,-5.996786E-1,2.7626488E-1,-5.996248E-1,1.6216044E-1,-4.3445792E-2,3.7106442E-1,-5.2771086E-1,1.7538813E-1,-3.5204884E-1,1.5991235E-1,-8.415769E-3,-1.3772033E-2,-5.9977907E-1,8.7855324E-2,-1.4074808E-1],"split_indices":[69,3,68,22,51,51,0,23,5,72,48,3,48,24,5,4,4,71,71,50,0,3,71,50,0,25,3,6,3,3,0,51,3,18,70,70,0,72,0,26,27,72,72,3,0,0,0,0,0,0,0,0,0,0,0,0,0,0,0,0,0,0,0,0,0,0,0,0,0,0,0,0,0,0,0,0,0],"split_type":[0,0,0,0,0,0,0,0,0,0,0,0,0,0,0,0,0,0,0,0,0,0,0,0,0,0,0,0,0,0,0,0,0,0,0,0,0,0,0,0,0,0,0,0,0,0,0,0,0,0,0,0,0,0,0,0,0,0,0,0,0,0,0,0,0,0,0,0,0,0,0,0,0,0,0,0,0],"sum_hessian":[3.03639E5,1.98395E5,1.05244E5,7.05355E4,1.278595E5,7.17265E4,3.35175E4,6.9318E4,1.2175E3,5.082E4,7.70395E4,3.857975E4,3.314675E4,6.837625E4,9.4175E2,4.425E1,1.17325E3,3.1527E4,1.9293E4,6.246375E4,1.457575E4,1.31695E4,2.541025E4,2.260725E4,1.05395E4,6.767675E4,6.995E2,1.3E1,9.2875E2,2.925E1,1.5E1,3.68E2,8.0525E2,1.29845E4,1.85425E4,1.702375E4,2.26925E3,5.64255E4,6.03825E3,3.70625E3,9.46325E3,1.31235E4,1.228675E4,2.04445E4,2.16275E3,6.711075E4,5.66E2,7.75E0,6.9175E2,5.75E0,7.25E0,6.75E0,9.22E2,5.5E0,2.375E1,3.3E1,3.35E2,4.75E0,8.005E2,1.292E4,6.45E1,1.6677E4,1.8655E3,1.54255E4,1.59825E3,3.540375E4,2.102175E4,3.6865E3,1.975E1,9.1775E3,2.8575E2,2.965E3,1.01585E4,9.57275E3,2.714E3,7.32525E3,1.311925E4],"tree_param":{"num_deleted":"0","num_feature":"73","num_nodes":"77","size_leaf_vector":"1"}},{"base_weights":[-3.0331772E-3,6.9783044E-1,-3.147292E-1,1.2148609E0,4.144855E-1,9.824359E-4,-7.022664E-1,1.2308251E0,-2.2837014E0,7.5767E-1,6.1445333E-2,4.488906E-1,-2.8389657E-1,-3.415523E-1,-4.6462938E-1,1.2452824E0,-2.2983549E0,4.9413037E-2,-2.37652E0,7.953397E-1,-1.6308982E0,4.8893154E-1,-1.8515066E0,5.912404E-1,5.6883983E-2,-6.8304525E-3,-4.6461236E-1,-9.398712E-3,-7.116414E-1,1.2595237E0,-2.2269619E0,-2.4269466E0,-1.4628059E0,3.9119592E-1,-5.103203E-1,-7.4023724E-1,-4.410736E-1,8.248029E-1,-1.9491632E0,6.484001E-2,-1.6609141E0,6.520719E-1,-1.8672088E0,-1.97837E0,-4.6434966E-1,6.119624E-1,-1.8280503E0,6.378038E-1,-1.8460956E0,1.50208E-1,-4.645701E-1,4.1963822E-1,-1.7331696E-1,-3.3482003E-1,-4.6460325E-1,3.8053954E-1,-6.174302E-1,-3.382243E-2,-7.052076E-1,-4.1110116E-1,-7.3855555E-1,-4.5111457E-1,-1.3018316E-1,2.561636E-1,-4.8773202E-1,-6.673041E-1,-4.7837007E-1,2.0175041E-1,-3.4799084E-1,-6.752106E-1,-4.84348E-1,2.0856881E-1,-5.037538E-1,-6.005548E-1,-4.6363208E-1,-6.403412E-1,-4.6417618E-1,1.879426E-1,-5.2289677E-1,-5.909906E-1,-5.1098794E-1,2.2607513E-1,1.07855886E-1,-5.9076864E-1,-5.0673634E-1,1.4230123E-1,-7.228601E-2,1.8964459E-1,6.159619E-2,-5.9724143E-3,-5.7280767E-1,-6.332467E-2,-4.644478E-1],"categories":[],"categories_nodes":[],"categories_segments":[],"categories_sizes":[],"default_left":[0,0,0,0,0,0,0,0,0,0,0,0,0,0,0,0,0,0,0,0,0,0,0,0,0,0,0,0,0,0,0,0,0,0,0,0,0,0,0,0,0,0,0,0,0,0,0,0,0,0,0,0,0,0,0,0,0,0,0,0,0,0,0,0,0,0,0,0,0,0,0,0,0,0,0,0,0,0,0,0,0,0,0,0,0,0,0,0,0,0,0,0,0],"id":1,"left_children":[1,3,5,7,9,11,13,15,17,19,21,23,25,27,-1,29,31,33,35,37,39,41,43,45,47,49,-1,51,53,55,57,59,61,-1,-1,-1,-1,63,65,67,69,71,73,75,-1,77,79,81,83,85,-1,87,89,91,-1,-1,-1,-1,-1,-1,-1,-1,-1,-1,-1,-1,-1,-1,-1,-1,-1,-1,-1,-1,-1,-1,-1,-1,-1,-1,-1,-1,-1,-1,-1,-1,-1,-1,-1,-1,-1,-1,-1],"loss_changes":[6.396467E4,1.3203863E4,2.4796607E4,1.784918E3,7.054537E3,1.4251147E4,2.7781184E4,1.6235469E3,3.15802E1,2.6578828E3,2.3472393E4,2.4228535E3,2.3923268E4,7.842704E3,0E0,1.567125E3,1.041156E1,1.6577261E1,7.8895264E0,2.3520547E3,2.3457031E1,9.018975E3,1.9891406E2,1.5979688E3,1.2789117E4,1.3558724E4,0E0,2.3647676E3,9.517624E3,9.3720703E2,3.3632324E1,7.237549E-1,1.828804E-1,0E0,0E0,0E0,0E0,2.0505684E3,2.6608154E1,7.434736E0,8.708374E0,2.2087676E3,6.273535E1,2.4531348E2,0E0,1.0804971E3,1.4384766E0,2.852964E2,4.897168E1,6.444058E3,0E0,4.232306E2,6.479579E3,3.1240278E3,0E0,0E0,0E0,0E0,0E0,0E0,0E0,0E0,0E0,0E0,0E0,0E0,0E0,0E0,0E0,0E0,0E0,0E0,0E0,0E0,0E0,0E0,0E0,0E0,0E0,0E0,0E0,0E0,0E0,0E0,0E0,0E0,0E0,0E0,0E0,0E0,0E0,0E0,0E0],"parents":[2147483647,0,0,1,1,2,2,3,3,4,4,5,5,6,6,7,7,8,8,9,9,10,10,11,11,12,12,13,13,15,15,16,16,17,17,18,18,19,19,20,20,21,21,22,22,23,23,24,24,25,25,27,27,28,28,29,29,30,30,31,31,32,32,37,37,38,38,39,39,40,40,41,41,42,42,43,43,45,45,46,46,47,47,48,48,49,49,51,51,52,52,53,53],"right_children":[2,4,6,8,10,12,14,16,18,20,22,24,26,28,-1,30,32,34,36,38,40,42,44,46,48,50,-1,52,54,56,58,60,62,-1,-1,-1,-1,64,66,68,70,72,74,76,-1,78,80,82,84,86,-1,88,90,92,-1,-1,-1,-1,-1,-1,-1,-1,-1,-1,-1,-1,-1,-1,-1,-1,-1,-1,-1,-1,-1,-1,-1,-1,-1,-1,-1,-1,-1,-1,-1,-1,-1,-1,-1,-1,-1,-1,-1],"split_conditions":[1.1597514E1,8.24E0,1E0,1E0,1E0,1E0,1E0,1E0,6.03E0,1E0,1E0,1E0,1E0,1E0,-4.6462938E-1,1E0,1E0,1E0,1E0,1E0,1.75E3,1E0,1.100661E1,1E0,1E0,1E0,-4.6461236E-1,1E0,1E0,1E0,6.03E0,6.03E0,2.827688E4,3.9119592E-1,-5.103203E-1,-7.4023724E-1,-4.410736E-1,1E0,1E0,2.2677835E-2,1E0,1E0,1.100661E1,1E0,-4.6434966E-1,1E0,1E0,1.6577961E1,1E0,1E0,-4.645701E-1,1.64E1,1E0,1E0,-4.6460325E-1,3.8053954E-1,-6.174302E-1,-3.382243E-2,-7.052076E-1,-4.1110116E-1,-7.3855555E-1,-4.5111457E-1,-1.3018316E-1,2.561636E-1,-4.8773202E-1,-6.673041E-1,-4.7837007E-1,2.0175041E-1,-3.4799084E-1,-6.752106E-1,-4.84348E-1,2.0856881E-1,-5.037538E-1,-6.005548E-1,-4.6363208E-1,-6.403412E-1,-4.6417618E-1,1.879426E-1,-5.2289677E-1,-5.909906E-1,-5.1098794E-1,2.2607513E-1,1.07855886E-1,-5.9076864E-1,-5.0673634E-1,1.4230123E-1,-7.228601E-2,1.8964459E-1,6.159619E-2,-5.9724143E-3,-5.7280767E-1,-6.332467E-2,-4.644478E-1],"split_indices":[3,3,69,19,51,51,68,20,3,23,48,50,48,51,0,21,69,13,69,26,5,50,3,19,48,50,0,56,48,26,3,3,10,0,0,0,0,24,69,4,68,23,3,69,0,18,70,3,70,71,0,3,55,50,0,0,0,0,0,0,0,0,0,0,0,0,0,0,0,0,0,0,0,0,0,0,0,0,0,0,0,0,0,0,0,0,0,0,0,0,0,0,0],"split_type":[0,0,0,0,0,0,0,0,0,0,0,0,0,0,0,0,0,0,0,0,0,0,0,0,0,0,0,0,0,0,0,0,0,0,0,0,0,0,0,0,0,0,0,0,0,0,0,0,0,0,0,0,0,0,0,0,0,0,0,0,0,0,0,0,0,0,0,0,0,0,0,0,0,0,0,0,0,0,0,0,0,0,0,0,0,0,0,0,0,0,0,0,0],"sum_hessian":[2.928009E5,9.013246E4,2.0266844E5,3.1907084E4,5.822538E4,1.1168443E5,9.0984016E4,3.1762797E4,1.4428656E2,2.9524227E4,2.8701152E4,4.3418316E4,6.826611E4,6.3799043E4,2.718497E4,3.1633855E4,1.2894241E2,5.5384326E0,1.3874812E2,2.906649E4,4.577364E2,2.3459432E4,5.24172E3,3.1851527E4,1.1566787E4,5.5999926E4,1.2266186E4,3.362329E4,3.0175754E4,3.1505273E4,1.2858061E2,1.1009419E2,1.8848217E1,3.374786E0,2.1636467E0,1.2452989E2,1.4218232E1,2.8758459E4,3.08032E2,7.941192E0,4.497952E2,2.1940953E4,1.5184795E3,3.6932922E3,1.5484283E3,3.1581768E4,2.6976123E2,8.862124E3,2.704663E3,5.0823992E4,5.1759355E3,9.294488E3,2.43288E4,2.0809172E4,9.366582E3,3.1421209E4,8.406539E1,7.214522E0,1.2136609E2,4.808104E0,1.0528609E2,1.7683558E1,1.16466E0,2.8421889E4,3.365704E2,1.704679E2,1.3756412E2,5.609233E0,2.3319592E0,2.9354528E1,4.2044064E2,2.154284E4,3.9811185E2,1.0668473E3,4.516322E2,2.708598E3,9.8469434E2,3.1389059E4,1.927072E2,1.1928148E2,1.5047977E2,6.257138E3,2.6049863E3,1.5092445E3,1.1954185E3,2.7793309E4,2.3030682E4,4.665942E3,4.6285464E3,2.2354418E4,1.9743828E3,1.8884484E4,1.9246885E3],"tree_param":{"num_deleted":"0","num_feature":"73","num_nodes":"93","size_leaf_vector":"1"}},{"base_weights":[-7.689668E-3,4.1366842E-1,-3.2687455E-1,9.609988E-1,2.3795946E-1,1.4884453E-1,-5.053602E-1,9.735556E-1,-1.7527678E0,2.9268008E-1,-1.5984074E0,3.4866807E-1,-9.687345E-2,-3.564841E-1,-1.540332E0,9.865509E-1,-1.6053857E0,-5.54566E-1,-5.412703E-1,3.430912E-1,-1.6516466E0,-3.0188566E-1,-1.606186E0,6.1298716E-1,1.9747913E-1,1.5260628E-1,-1.5261811E0,-2.853343E-1,-1.6137874E0,-1.7311364E0,-1.4343909E0,9.983912E-1,-1.7169646E0,3.199646E-2,-5.0034064E-1,3.053412E-1,-4.8931882E-1,3.857781E-1,-1.7477995E0,-1.8866705E0,-1.5106766E0,-1.2699887E0,2.7997565E-1,-1.7237419E0,-1.5239735E0,6.248261E-1,-5.440653E-1,4.0813702E-1,-1.604908E0,3.7770697E-1,-1.610798E0,-1.6513871E0,-1.43006E0,-2.214762E-1,-1.5572883E0,-1.7528688E0,-1.4751396E0,-1.9027083E0,-1.5105875E0,-1.5214245E0,-4.0336967E-1,3.0308202E-1,-4.8876563E-1,-1.6949485E-1,-5.3878766E-1,3.3099958E-1,-3.9273414E-1,1.2479986E-1,-5.2694136E-1,-6.2549186E-1,-4.8068407E-1,-6.22339E-1,-4.361841E-1,-4.8348996E-1,-4.284506E-1,-4.1318083E-1,-1.0928976E-1,4.1640535E-1,-2.4887721E-1,-5.599641E-1,-4.1196606E-1,-5.217488E-1,-4.0060148E-1,2.1493085E-1,1.0548002E-1,1.8090618E-1,7.847744E-2,-5.339781E-1,-4.4319242E-1,1.5834855E-1,4.287307E-2,-5.299338E-1,-4.44176E-1,-5.330499E-1,-4.115588E-1,-4.6020204E-1,-4.030085E-1,1.2964948E-2,-1.4736632E-1,-5.141366E-1,-4.2099082E-1,-5.6384796E-1,-4.1898298E-1,-5.046145E-1,-4.032165E-1,-6.202495E-1,-4.2674074E-1,-5.369375E-1,-4.0317556E-1,-5.1923966E-1,-4.280599E-1],"categories":[],"categories_nodes":[],"categories_segments":[],"categories_sizes":[],"default_left":[0,0,0,0,0,0,0,0,0,0,0,0,0,0,0,0,0,0,0,0,0,0,0,0,0,0,0,0,0,0,0,0,0,0,0,0,0,0,0,0,0,0,0,0,0,0,0,0,0,0,0,0,0,0,0,0,0,0,0,0,0,0,0,0,0,0,0,0,0,0,0,0,0,0,0,0,0,0,0,0,0,0,0,0,0,0,0,0,0,0,0,0,0,0,0,0,0,0,0,0,0,0,0,0,0,0,0,0,0,0,0],"id":2,"left_children":[1,3,5,7,9,11,13,15,17,19,21,23,25,27,29,31,33,35,-1,37,39,41,43,45,47,49,51,53,55,57,59,61,63,65,-1,-1,-1,67,69,71,73,75,77,79,81,83,-1,85,87,89,91,93,95,97,99,101,103,105,107,109,-1,-1,-1,-1,-1,-1,-1,-1,-1,-1,-1,-1,-1,-1,-1,-1,-1,-1,-1,-1,-1,-1,-1,-1,-1,-1,-1,-1,-1,-1,-1,-1,-1,-1,-1,-1,-1,-1,-1,-1,-1,-1,-1,-1,-1,-1,-1,-1,-1,-1,-1],"loss_changes":[3.6974812E4,1.1395648E4,1.3282189E4,9.8297266E2,9.014291E3,2.0955664E3,1.7526334E4,9.6222656E2,7.200287E0,8.538364E3,2.5693848E1,9.4049414E2,6.825947E3,8.895714E3,2.8666406E2,9.146797E2,1.4779633E1,1.3374352E1,0E0,7.578841E3,7.0089355E1,9.769539E0,2.2308105E1,2.4715869E2,5.6863213E3,6.4700986E3,3.1874512E1,7.6446304E3,1.0011621E2,1.9018457E2,6.990625E1,8.882539E2,1.0335999E1,1.045626E1,0E0,0E0,0E0,5.3877773E3,8.001709E1,6.3731934E1,9.202881E0,1.2539196E-1,1.4992242E1,5.0204346E1,5.9657227E1,2.1308667E2,0E0,3.8277637E2,3.237085E1,5.0940308E2,3.478125E1,4.065747E1,1.2509033E1,6.399074E3,1.06021484E2,1.1707861E2,7.025049E1,2.2385254E2,1.0170361E2,8.992285E1,0E0,0E0,0E0,0E0,0E0,0E0,0E0,0E0,0E0,0E0,0E0,0E0,0E0,0E0,0E0,0E0,0E0,0E0,0E0,0E0,0E0,0E0,0E0,0E0,0E0,0E0,0E0,0E0,0E0,0E0,0E0,0E0,0E0,0E0,0E0,0E0,0E0,0E0,0E0,0E0,0E0,0E0,0E0,0E0,0E0,0E0,0E0,0E0,0E0,0E0,0E0],"parents":[2147483647,0,0,1,1,2,2,3,3,4,4,5,5,6,6,7,7,8,8,9,9,10,10,11,11,12,12,13,13,14,14,15,15,16,16,17,17,19,19,20,20,21,21,22,22,23,23,24,24,25,25,26,26,27,27,28,28,29,29,30,30,31,31,32,32,33,33,37,37,38,38,39,39,40,40,41,41,42,42,43,43,44,44,45,45,47,47,48,48,49,49,50,50,51,51,52,52,53,53,54,54,55,55,56,56,57,57,58,58,59,59],"right_children":[2,4,6,8,10,12,14,16,18,20,22,24,26,28,30,32,34,36,-1,38,40,42,44,46,48,50,52,54,56,58,60,62,64,66,-1,-1,-1,68,70,72,74,76,78,80,82,84,-1,86,88,90,92,94,96,98,100,102,104,106,108,110,-1,-1,-1,-1,-1,-1,-1,-1,-1,-1,-1,-1,-1,-1,-1,-1,-1,-1,-1,-1,-1,-1,-1,-1,-1,-1,-1,-1,-1,-1,-1,-1,-1,-1,-1,-1,-1,-1,-1,-1,-1,-1,-1,-1,-1,-1,-1,-1,-1,-1,-1],"split_conditions":[1.3014773E1,8.24E0,1E0,1E0,1E0,1E0,1E0,1E0,6.03E0,1E0,1.011436E3,1E0,1E0,1E0,1E0,1E0,6.03E0,1E0,-5.412703E-1,1E0,1E0,1.1E3,1E0,1E0,1E0,1E0,1E0,1E0,1E0,1E0,1E0,1E0,6.03E0,1E0,-5.0034064E-1,3.053412E-1,-4.8931882E-1,1E0,1.100661E1,1E0,1E0,4.8618612E-1,7.625E3,1E0,1E0,1E0,-5.440653E-1,1.7424625E1,1E0,1E0,1E0,1E0,1E0,1E0,1E0,1E0,1E0,1E0,1E0,1E0,-4.0336967E-1,3.0308202E-1,-4.8876563E-1,-1.6949485E-1,-5.3878766E-1,3.3099958E-1,-3.9273414E-1,1.2479986E-1,-5.2694136E-1,-6.2549186E-1,-4.8068407E-1,-6.22339E-1,-4.361841E-1,-4.8348996E-1,-4.284506E-1,-4.1318083E-1,-1.0928976E-1,4.1640535E-1,-2.4887721E-1,-5.599641E-1,-4.1196606E-1,-5.217488E-1,-4.0060148E-1,2.1493085E-1,1.0548002E-1,1.8090618E-1,7.847744E-2,-5.339781E-1,-4.4319242E-1,1.5834855E-1,4.287307E-2,-5.299338E-1,-4.44176E-1,-5.330499E-1,-4.115588E-1,-4.6020204E-1,-4.030085E-1,1.2964948E-2,-1.4736632E-1,-5.141366E-1,-4.2099082E-1,-5.6384796E-1,-4.1898298E-1,-5.046145E-1,-4.032165E-1,-6.202495E-1,-4.2674074E-1,-5.369375E-1,-4.0317556E-1,-5.1923966E-1,-4.280599E-1],"split_indices":[3,3,56,22,25,71,55,19,3,26,5,72,72,63,69,23,3,13,0,27,48,6,48,20,70,70,48,58,48,48,68,20,3,13,0,0,0,28,3,50,51,1,6,50,51,69,0,7,48,69,48,50,51,71,51,50,51,50,51,48,0,0,0,0,0,0,0,0,0,0,0,0,0,0,0,0,0,0,0,0,0,0,0,0,0,0,0,0,0,0,0,0,0,0,0,0,0,0,0,0,0,0,0,0,0,0,0,0,0,0,0],"split_type":[0,0,0,0,0,0,0,0,0,0,0,0,0,0,0,0,0,0,0,0,0,0,0,0,0,0,0,0,0,0,0,0,0,0,0,0,0,0,0,0,0,0,0,0,0,0,0,0,0,0,0,0,0,0,0,0,0,0,0,0,0,0,0,0,0,0,0,0,0,0,0,0,0,0,0,0,0,0,0,0,0,0,0,0,0,0,0,0,0,0,0,0,0,0,0,0,0,0,0,0,0,0,0,0,0,0,0,0,0,0,0],"sum_hessian":[2.7492178E5,1.18495195E5,1.564266E5,2.8794951E4,8.970025E4,4.2677668E4,1.1374893E5,2.8662965E4,1.3198529E2,8.710549E4,2.594756E3,2.3536678E4,1.914099E4,9.944548E4,1.4303447E4,2.8519871E4,1.4309383E2,5.920653E0,1.2606464E2,8.490496E4,2.200531E3,1.5712133E1,2.579044E3,8.563068E3,1.497361E4,1.6297264E4,2.8437266E3,9.41205E4,5.324979E3,5.1009956E3,9.202452E3,2.8396139E4,1.23733055E2,5.272275E0,1.3782155E2,2.428305E0,3.4923482E0,8.320705E4,1.6979106E3,8.2039386E2,1.3801371E3,5.4544187E0,1.0257714E1,1.0531609E3,1.525883E3,8.522231E3,4.083696E1,1.3407369E4,1.5662416E3,1.4453095E4,1.8441692E3,1.2279879E3,1.6157386E3,8.962222E4,4.4982827E3,2.6525203E3,2.6724587E3,2.8647727E3,2.236223E3,4.6657627E3,4.536689E3,2.826892E4,1.2721766E2,8.463341E0,1.15269714E2,3.02949E0,2.242785E0,8.205034E4,1.1567067E3,5.0785852E2,1.1900521E3,5.6946436E2,2.5092952E2,6.123421E2,7.67795E2,4.4112153E0,1.0432035E0,5.0068183E0,5.250896E0,7.452254E2,3.0793542E2,7.0893384E2,8.1694916E2,6.381091E3,2.1411401E3,5.7532705E3,7.6540986E3,6.5494946E2,9.112921E2,8.8155E3,5.637594E3,8.343114E2,1.00985785E3,8.439023E2,3.8408557E2,7.2718665E2,8.88552E2,4.523514E4,4.4387074E4,2.2259014E3,2.2723813E3,1.9538065E3,6.987136E2,1.0318774E3,1.6405813E3,2.1304292E3,7.343435E2,8.3226807E2,1.4039547E3,1.4462086E3,3.2195542E3],"tree_param":{"num_deleted":"0","num_feature":"73","num_nodes":"111","size_leaf_vector":"1"}},{"base_weights":[-8.707231E-3,2.1434726E-1,-4.447585E-1,5.2299434E-1,-3.8205434E-2,-1.3013037E-1,-1.3254662E0,8.3288354E-1,3.6596322E-1,1.8285052E-1,-1.4249656E0,1.1319695E-1,-4.1687992E-1,-1.5520849E0,-1.2898823E0,8.5796523E-1,-2.7363398E0,3.8428056E-1,-1.4840032E0,2.862603E-1,-1.3939384E0,-2.7588866E0,-1.3732527E0,3.019689E-1,-1.5937068E-1,-9.352376E-2,-1.4464858E0,-1.9068866E0,-1.5080674E0,-1.3027663E0,-1.2597376E0,8.7481433E-1,-1.7183772E0,-1.1430955E0,-2.9463384E0,3.9946693E-1,-1.8700544E0,-2.6729694E-1,-1.6654962E0,4.6864307E-1,-9.684884E-2,-2.6893194E0,-1.3573594E0,-2.5638793E0,-1.1444856E0,-1.6500868E0,-1.3047986E0,5.0020194E-1,8.241298E-2,8.736834E-2,-3.8570842E-1,9.7471125E-2,-1.6118314E0,-1.8406667E0,-1.4221218E0,-1.9292623E0,-3.3505356E-1,-1.6196237E0,-1.4349494E0,-1.3096138E0,-1.2477341E0,-1.3312701E0,-1.2443397E0,2.6565033E-1,-4.149214E-1,-3.575584E-2,-5.228861E-1,-7.108304E-1,1.4472276E-1,-5.5654776E-1,-9.459651E-1,1.5934359E-1,5.0382152E-2,-5.445508E-1,-7.983163E-1,-4.7437733E-1,2.662494E-1,-4.7597274E-1,-8.088003E-1,2.1237099E-1,8.992673E-2,6.175645E-2,-5.274292E-1,-8.4002364E-1,-3.937203E-1,-4.9934196E-1,-3.8973698E-1,-8.024604E-1,-4.18736E-1,-5.079158E-1,-3.9821142E-1,-4.0324864E-1,-3.8601604E-1,1.5582043E-1,-4.8636347E-1,6.3357264E-2,-6.6577435E-2,4.7031883E-2,-3.836737E-1,1.2807544E-1,-2.9029964E-2,-5.529801E-1,-4.3211862E-1,-6.53611E-1,-4.6768576E-1,-4.6807143E-1,-4.0691188E-1,-5.8932215E-1,-4.0098852E-1,-4.9398175E-1,-3.578291E-1,-4.6303615E-1,-4.0500066E-1,-3.9528906E-1,-3.72428E-1,-3.985914E-1,-3.7020722E-1,-4.03676E-1,-3.616653E-1,-3.842271E-1,-3.6901516E-1],"categories":[],"categories_nodes":[],"categories_segments":[],"categories_sizes":[],"default_left":[0,0,0,0,0,0,0,0,0,0,0,0,0,0,0,0,0,0,0,0,0,0,0,0,0,0,0,0,0,0,0,0,0,0,0,0,0,0,0,0,0,0,0,0,0,0,0,0,0,0,0,0,0,0,0,0,0,0,0,0,0,0,0,0,0,0,0,0,0,0,0,0,0,0,0,0,0,0,0,0,0,0,0,0,0,0,0,0,0,0,0,0,0,0,0,0,0,0,0,0,0,0,0,0,0,0,0,0,0,0,0,0,0,0,0,0,0,0,0,0,0],"id":3,"left_children":[1,3,5,7,9,11,13,15,17,19,21,23,25,27,29,31,33,35,37,39,41,43,45,47,49,51,53,55,57,59,61,63,65,67,69,71,73,75,77,79,81,83,85,87,-1,89,91,93,95,97,-1,99,101,103,105,107,-1,109,111,113,115,117,119,-1,-1,-1,-1,-1,-1,-1,-1,-1,-1,-1,-1,-1,-1,-1,-1,-1,-1,-1,-1,-1,-1,-1,-1,-1,-1,-1,-1,-1,-1,-1,-1,-1,-1,-1,-1,-1,-1,-1,-1,-1,-1,-1,-1,-1,-1,-1,-1,-1,-1,-1,-1,-1,-1,-1,-1,-1,-1],"loss_changes":[2.5464719E4,1.3501678E4,2.4551184E4,3.7928418E3,2.9203121E4,4.555054E3,1.860586E2,2.3491035E3,1.7536948E3,1.3397988E4,8.9969336E2,1.8171561E3,9.976926E3,4.6476074E1,6.1914062E0,1.1315371E3,5.791565E1,1.7545737E3,1.1160913E2,5.3878945E3,2.3597754E2,9.0680664E1,2.3682812E2,9.0809485E2,4.016232E3,6.613755E3,6.6166016E1,3.9438477E0,2.0645508E1,3.6777344E0,5.0253906E0,6.252949E2,6.4531555E0,4.6921448E1,3.0540283E1,1.5512979E3,1.0059448E1,1.0315562E2,3.1618896E1,2.1107178E3,1.2506787E4,1.7350342E1,8.583789E1,5.0047607E1,0E0,3.2365234E1,5.46875E0,4.4744946E2,3.8810648E2,1.1243934E3,0E0,1.2964331E3,9.8456055E1,3.5982544E1,5.9176758E1,4.333252E0,0E0,1.0788086E1,1.3676514E1,5.2070312E0,1.1401367E-1,2.8637695E-1,1.0317383E0,0E0,0E0,0E0,0E0,0E0,0E0,0E0,0E0,0E0,0E0,0E0,0E0,0E0,0E0,0E0,0E0,0E0,0E0,0E0,0E0,0E0,0E0,0E0,0E0,0E0,0E0,0E0,0E0,0E0,0E0,0E0,0E0,0E0,0E0,0E0,0E0,0E0,0E0,0E0,0E0,0E0,0E0,0E0,0E0,0E0,0E0,0E0,0E0,0E0,0E0,0E0,0E0,0E0,0E0,0E0,0E0,0E0,0E0],"parents":[2147483647,0,0,1,1,2,2,3,3,4,4,5,5,6,6,7,7,8,8,9,9,10,10,11,11,12,12,13,13,14,14,15,15,16,16,17,17,18,18,19,19,20,20,21,21,22,22,23,23,24,24,25,25,26,26,27,27,28,28,29,29,30,30,31,31,32,32,33,33,34,34,35,35,36,36,37,37,38,38,39,39,40,40,41,41,42,42,43,43,45,45,46,46,47,47,48,48,49,49,51,51,52,52,53,53,54,54,55,55,57,57,58,58,59,59,60,60,61,61,62,62],"right_children":[2,4,6,8,10,12,14,16,18,20,22,24,26,28,30,32,34,36,38,40,42,44,46,48,50,52,54,56,58,60,62,64,66,68,70,72,74,76,78,80,82,84,86,88,-1,90,92,94,96,98,-1,100,102,104,106,108,-1,110,112,114,116,118,120,-1,-1,-1,-1,-1,-1,-1,-1,-1,-1,-1,-1,-1,-1,-1,-1,-1,-1,-1,-1,-1,-1,-1,-1,-1,-1,-1,-1,-1,-1,-1,-1,-1,-1,-1,-1,-1,-1,-1,-1,-1,-1,-1,-1,-1,-1,-1,-1,-1,-1,-1,-1,-1,-1,-1,-1,-1,-1],"split_conditions":[1E0,1E0,1E0,1.021952E1,1E0,1E0,1.1597514E1,1E0,1E0,1E0,8.24E0,1E0,1E0,8.24E0,1E0,1E0,2.2677835E-2,1E0,2.2677835E-2,1E0,8.24E0,1E0,1.100661E1,1.5685679E1,1E0,1E0,1.3014773E1,1E0,1E0,1E0,1.3014773E1,1E0,6.03E0,9.99E0,8.24E0,1E0,1E0,7.12E2,1E0,1E0,1E0,1E0,1.100661E1,1E0,-1.1444856E0,1E0,1.299E1,1E0,1E0,1E0,-3.8570842E-1,1.64E1,1E0,1E0,1E0,1E0,-3.3505356E-1,1E0,1E0,1E0,1.3014773E1,1E0,1E0,2.6565033E-1,-4.149214E-1,-3.575584E-2,-5.228861E-1,-7.108304E-1,1.4472276E-1,-5.5654776E-1,-9.459651E-1,1.5934359E-1,5.0382152E-2,-5.445508E-1,-7.983163E-1,-4.7437733E-1,2.662494E-1,-4.7597274E-1,-8.088003E-1,2.1237099E-1,8.992673E-2,6.175645E-2,-5.274292E-1,-8.4002364E-1,-3.937203E-1,-4.9934196E-1,-3.8973698E-1,-8.024604E-1,-4.18736E-1,-5.079158E-1,-3.9821142E-1,-4.0324864E-1,-3.8601604E-1,1.5582043E-1,-4.8636347E-1,6.3357264E-2,-6.6577435E-2,4.7031883E-2,-3.836737E-1,1.2807544E-1,-2.9029964E-2,-5.529801E-1,-4.3211862E-1,-6.53611E-1,-4.6768576E-1,-4.6807143E-1,-4.0691188E-1,-5.8932215E-1,-4.0098852E-1,-4.9398175E-1,-3.578291E-1,-4.6303615E-1,-4.0500066E-1,-3.9528906E-1,-3.72428E-1,-3.985914E-1,-3.7020722E-1,-4.03676E-1,-3.616653E-1,-3.842271E-1,-3.6901516E-1],"split_indices":[69,51,68,3,48,72,3,21,18,50,3,51,71,3,55,22,4,17,4,72,3,18,3,3,48,70,3,20,51,58,3,23,3,3,3,72,21,12,21,71,71,19,3,19,0,22,3,29,70,50,0,3,51,51,48,26,0,26,48,63,3,25,56,0,0,0,0,0,0,0,0,0,0,0,0,0,0,0,0,0,0,0,0,0,0,0,0,0,0,0,0,0,0,0,0,0,0,0,0,0,0,0,0,0,0,0,0,0,0,0,0,0,0,0,0,0,0,0,0,0,0],"split_type":[0,0,0,0,0,0,0,0,0,0,0,0,0,0,0,0,0,0,0,0,0,0,0,0,0,0,0,0,0,0,0,0,0,0,0,0,0,0,0,0,0,0,0,0,0,0,0,0,0,0,0,0,0,0,0,0,0,0,0,0,0,0,0,0,0,0,0,0,0,0,0,0,0,0,0,0,0,0,0,0,0,0,0,0,0,0,0,0,0,0,0,0,0,0,0,0,0,0,0,0,0,0,0,0,0,0,0,0,0,0,0,0,0,0,0,0,0,0,0,0,0],"sum_hessian":[2.618105E5,1.7320897E5,8.860154E4,7.79475E4,9.526147E4,6.5281293E4,2.3320248E4,2.6213268E4,5.1734234E4,8.2164875E4,1.3096591E4,3.5314797E4,2.9966498E4,3.159037E3,2.016121E4,2.6031102E4,1.8216644E2,5.1227797E4,5.06437E2,7.710871E4,5.0561646E3,4.8682077E2,1.26097705E4,2.0864545E4,1.4450251E4,2.2805373E4,7.161124E3,3.43991E2,2.8150461E3,1.4094789E4,6.066421E3,2.5862621E4,1.6847969E2,2.196476E1,1.6020169E2,5.0885824E4,3.4197055E2,6.605896E1,4.4037805E2,5.2239414E4,2.4869295E4,1.3686357E2,4.919301E3,4.1383252E2,7.298824E1,2.4953323E3,1.0114438E4,1.0964038E4,9.900507E3,1.1854302E4,2.595949E3,2.0257967E4,2.5474067E3,4.125178E2,6.7486064E3,3.331145E2,1.0876502E1,1.1061857E3,1.7088605E3,1.2514821E4,1.5799685E3,1.059403E3,5.007018E3,2.5741395E4,1.2122745E2,2.63854E0,1.6584116E2,1.2258697E1,9.706063E0,2.7120777E1,1.330809E2,3.243656E4,1.8449266E4,3.2286285E2,1.9107702E1,3.0727257E1,3.5331703E1,4.1141013E2,2.8967915E1,2.161482E4,3.0624596E4,2.1036934E4,3.8323596E3,1.2571728E2,1.1146289E1,7.7973303E2,4.139568E3,3.767454E2,3.708712E1,2.1983955E3,2.9693677E2,3.1602046E3,6.9542334E3,1.0866448E4,9.758997E1,6.9570127E3,2.943494E3,1.1282078E4,5.7222406E2,7.5133525E3,1.2744614E4,1.0798615E3,1.4675453E3,1.8445335E2,2.2806444E2,2.1691736E3,4.5794326E3,3.122807E2,2.0833807E1,1.0377325E3,6.845311E1,7.4284406E2,9.660165E2,1.1181913E4,1.3329075E3,2.1504834E2,1.3649202E3,9.423833E2,1.170197E2,1.3860269E3,3.620991E3],"tree_param":{"num_deleted":"0","num_feature":"73","num_nodes":"121","size_leaf_vector":"1"}},{"base_weights":[-1.3051789E-2,1.5916987E-1,-3.5831985E-1,6.9574606E-1,6.486836E-2,-1.0294566E-1,-1.2192122E0,7.116113E-1,-1.7191024E0,1.7638281E-1,-2.892497E-1,-2.2206928E-1,2.7004954E-1,-1.3512952E0,-1.1973063E0,7.247455E-1,-1.729916E0,-1.3686305E0,-2.4388382E0,3.0875027E-1,-6.024679E-2,-1.6652801E0,4.212393E-1,-1.4964297E-1,-1.5334659E0,5.1900154E-1,1.361153E-1,-4.5592678E-1,-1.3282709E0,-1.2052425E0,-1.1784475E0,7.383825E-1,-1.6233385E0,-1.360473E0,-2.396296E0,-1.2238638E-1,-4.2540643E-1,-1.0700927E0,-1.9508479E0,4.4389874E-1,5.917876E-2,2.2117849E-1,-1.6807754E0,-1.8060584E0,-1.5227879E0,5.191943E-1,-1.11214E-1,-2.6438695E-1,4.440233E-1,-1.6910896E0,-1.3010092E0,7.234907E-1,4.2249972E-1,-1.5469025E0,3.993939E-1,-1.3877404E0,-1.2873094E0,-3.6681813E-1,-3.586319E-1,-3.669008E-1,-3.5055998E-1,2.2488664E-1,-5.30423E-1,-4.857042E-2,-5.082476E-1,-1.7975202E-1,-4.1838536E-1,-1.0556427E0,-5.7837105E-1,2.61256E-1,-3.3247495E-1,-7.077749E-1,-4.3686455E-1,1.3804297E-1,-4.9078977E-1,2.6534218E-2,-4.6917507E-1,1.5270671E-1,-4.930318E-1,-5.609387E-1,-4.4023103E-1,-5.8389133E-1,-4.056456E-1,-5.573841E-1,-3.734773E-1,2.04284E-1,1.09538056E-1,-4.9653476E-1,1.8420371E-1,-3.9186962E-2,-4.4765285E-1,1.6896643E-1,7.6817185E-2,-5.594936E-1,-4.716014E-1,-4.5090568E-1,-3.6615944E-1,2.528469E-1,1.8592025E-1,9.752332E-2,2.0513202E-1,-5.059193E-1,-3.8478336E-1,2.0046183E-1,8.740025E-2,-4.2069575E-1,-3.377503E-1,-4.05519E-1,-3.7028372E-1],"categories":[],"categories_nodes":[],"categories_segments":[],"categories_sizes":[],"default_left":[0,0,0,0,0,0,0,0,0,0,0,0,0,0,0,0,0,0,0,0,0,0,0,0,0,0,0,0,0,0,0,0,0,0,0,0,0,0,0,0,0,0,0,0,0,0,0,0,0,0,0,0,0,0,0,0,0,0,0,0,0,0,0,0,0,0,0,0,0,0,0,0,0,0,0,0,0,0,0,0,0,0,0,0,0,0,0,0,0,0,0,0,0,0,0,0,0,0,0,0,0,0,0,0,0,0,0,0,0],"id":4,"left_children":[1,3,5,7,9,11,13,15,17,19,21,23,25,27,29,31,33,35,37,39,41,43,45,47,49,51,53,-1,55,57,59,61,63,65,67,69,-1,-1,71,73,75,77,79,81,83,85,87,89,91,93,95,97,99,101,103,105,107,-1,-1,-1,-1,-1,-1,-1,-1,-1,-1,-1,-1,-1,-1,-1,-1,-1,-1,-1,-1,-1,-1,-1,-1,-1,-1,-1,-1,-1,-1,-1,-1,-1,-1,-1,-1,-1,-1,-1,-1,-1,-1,-1,-1,-1,-1,-1,-1,-1,-1,-1,-1],"loss_changes":[1.4469413E4,8.215031E3,1.7803914E4,9.3097754E2,5.452988E3,2.7751838E3,5.198633E1,7.744131E2,3.669095E1,3.2893591E3,3.233247E4,4.4960146E3,5.0404407E2,8.173828E0,9.609375E-1,7.691221E2,2.8572998E1,6.5357513E0,2.0946503E1,2.2714702E3,1.718129E4,2.2314648E2,1.1376157E3,3.0561365E3,8.857764E1,1.0405127E2,4.3570615E3,0E0,3.864502E0,4.482422E-1,6.7089844E-1,6.730547E2,1.40902405E1,1.3868713E0,1.6773285E1,6.1055813E0,0E0,0E0,4.1579895E0,1.4767842E3,1.12407E3,1.722912E4,2.220459E2,3.576328E2,5.194795E2,4.5883447E2,3.7965168E3,6.1744326E3,1.6267285E2,2.7571777E1,1.4511475E1,2.0453003E1,9.1289E1,4.6875977E1,2.4678503E2,1.9848633E0,3.071289E0,0E0,0E0,0E0,0E0,0E0,0E0,0E0,0E0,0E0,0E0,0E0,0E0,0E0,0E0,0E0,0E0,0E0,0E0,0E0,0E0,0E0,0E0,0E0,0E0,0E0,0E0,0E0,0E0,0E0,0E0,0E0,0E0,0E0,0E0,0E0,0E0,0E0,0E0,0E0,0E0,0E0,0E0,0E0,0E0,0E0,0E0,0E0,0E0,0E0,0E0,0E0,0E0],"parents":[2147483647,0,0,1,1,2,2,3,3,4,4,5,5,6,6,7,7,8,8,9,9,10,10,11,11,12,12,13,13,14,14,15,15,16,16,17,17,18,18,19,19,20,20,21,21,22,22,23,23,24,24,25,25,26,26,28,28,29,29,30,30,31,31,32,32,33,33,34,34,35,35,38,38,39,39,40,40,41,41,42,42,43,43,44,44,45,45,46,46,47,47,48,48,49,49,50,50,51,51,52,52,53,53,54,54,55,55,56,56],"right_children":[2,4,6,8,10,12,14,16,18,20,22,24,26,28,30,32,34,36,38,40,42,44,46,48,50,52,54,-1,56,58,60,62,64,66,68,70,-1,-1,72,74,76,78,80,82,84,86,88,90,92,94,96,98,100,102,104,106,108,-1,-1,-1,-1,-1,-1,-1,-1,-1,-1,-1,-1,-1,-1,-1,-1,-1,-1,-1,-1,-1,-1,-1,-1,-1,-1,-1,-1,-1,-1,-1,-1,-1,-1,-1,-1,-1,-1,-1,-1,-1,-1,-1,-1,-1,-1,-1,-1,-1,-1,-1,-1],"split_conditions":[1E0,8.49E0,1E0,1E0,8.249624E-3,3E0,1.1597514E1,1E0,8.24E0,1E0,1E0,2.0139475E0,3.0895176E0,8.24E0,1E0,1E0,8.24E0,6.03E0,1E0,1.4733126E1,1E0,1E0,1.0318235E0,2E0,1E0,1.459E1,4E0,-4.5592678E-1,1E0,1E0,1.3014773E1,1E0,6.03E0,6.03E0,1E0,1E0,-4.2540643E-1,-1.0700927E0,1E0,1E0,1E0,1E0,1E0,1E0,1E0,1.7000326E1,2E0,1.0373151E0,1.7635582E1,1E0,1E0,4.5119E2,7.12E2,1E0,1.361E1,1E0,1E0,-3.6681813E-1,-3.586319E-1,-3.669008E-1,-3.5055998E-1,2.2488664E-1,-5.30423E-1,-4.857042E-2,-5.082476E-1,-1.7975202E-1,-4.1838536E-1,-1.0556427E0,-5.7837105E-1,2.61256E-1,-3.3247495E-1,-7.077749E-1,-4.3686455E-1,1.3804297E-1,-4.9078977E-1,2.6534218E-2,-4.6917507E-1,1.5270671E-1,-4.930318E-1,-5.609387E-1,-4.4023103E-1,-5.8389133E-1,-4.056456E-1,-5.573841E-1,-3.734773E-1,2.04284E-1,1.09538056E-1,-4.9653476E-1,1.8420371E-1,-3.9186962E-2,-4.4765285E-1,1.6896643E-1,7.6817185E-2,-5.594936E-1,-4.716014E-1,-4.5090568E-1,-3.6615944E-1,2.528469E-1,1.8592025E-1,9.752332E-2,2.0513202E-1,-5.059193E-1,-3.8478336E-1,2.0046183E-1,8.740025E-2,-4.2069575E-1,-3.377503E-1,-4.05519E-1,-3.7028372E-1],"split_indices":[69,3,68,19,1,4,3,20,3,70,1,4,4,3,55,21,3,3,51,3,71,48,1,4,51,7,4,0,51,71,3,24,3,3,51,13,0,0,48,29,23,72,48,50,51,7,1,4,3,72,48,9,12,51,7,26,48,0,0,0,0,0,0,0,0,0,0,0,0,0,0,0,0,0,0,0,0,0,0,0,0,0,0,0,0,0,0,0,0,0,0,0,0,0,0,0,0,0,0,0,0,0,0,0,0,0,0,0,0],"split_type":[0,0,0,0,0,0,0,0,0,0,0,0,0,0,0,0,0,0,0,0,0,0,0,0,0,0,0,0,0,0,0,0,0,0,0,0,0,0,0,0,0,0,0,0,0,0,0,0,0,0,0,0,0,0,0,0,0,0,0,0,0,0,0,0,0,0,0,0,0,0,0,0,0,0,0,0,0,0,0,0,0,0,0,0,0,0,0,0,0,0,0,0,0,0,0,0,0,0,0,0,0,0,0,0,0,0,0,0,0],"sum_hessian":[2.4333423E5,1.6235245E5,8.098178E4,2.4266955E4,1.380855E5,6.2456016E4,1.8525768E4,2.4109266E4,1.5768892E2,1.0501575E5,3.306975E4,4.7338047E4,1.5117966E4,2.6267742E3,1.5898994E4,2.3980963E4,1.2830309E2,1.0800028E2,4.9688637E1,6.734407E4,3.7671684E4,1.1260254E4,2.1809496E4,4.486153E4,2.4765154E3,5.2872837E3,9.830683E3,3.0802917E2,2.318745E3,1.1145707E4,4.753287E3,2.3843174E4,1.3778871E2,8.4498474E1,4.3804604E1,4.249658E0,1.03750626E2,1.3098339E1,3.6590298E1,4.368623E4,2.3657838E4,3.2098275E4,5.5734077E3,5.6583174E3,5.6019365E3,1.8420684E4,3.3888135E3,3.75956E4,7.2659336E3,1.4720656E3,1.00445E3,1.6930927E3,3.594191E3,1.3291523E3,8.50153E3,9.323063E2,1.3864387E3,3.9595557E3,7.1861514E3,8.4289856E2,3.9103884E3,2.3737432E4,1.0574406E2,6.5204115E0,1.312683E2,4.423317E0,8.007516E1,1.097949E1,3.282511E1,2.175022E0,2.0746365E0,1.797732E1,1.8612978E1,4.334844E4,3.377879E2,2.323971E4,4.1812683E2,2.7806475E4,4.2918003E3,2.9510156E3,2.622392E3,4.3201953E3,1.338122E3,2.5366018E3,3.065335E3,8.984556E3,9.436127E3,1.0826743E3,2.3061392E3,3.3903074E4,3.6925269E3,4.445094E3,2.8208394E3,5.92391E2,8.796745E2,2.8112158E2,7.233284E2,7.84129E2,9.089636E2,2.6196409E3,9.7455E2,8.664521E2,4.627003E2,2.43614E3,6.06539E3,8.790222E2,5.3284058E1,6.149347E2,7.71504E2],"tree_param":{"num_deleted":"0","num_feature":"73","num_nodes":"109","size_leaf_vector":"1"}},{"base_weights":[-1.5625969E-2,1.5140341E-1,-2.8495926E-1,4.1000286E-1,1.9785172E-4,-2.7636884E-2,-1.3000181E0,5.529157E-1,1.8168557E-1,2.493062E-1,-1.44276E0,1.9991171E-1,-1.3848715E0,-1.6994079E0,-1.2586883E0,5.6662846E-1,-1.2735155E0,2.0057815E-1,-1.830872E0,3.655162E-1,-1.5011398E-4,-2.2951694E0,-1.402671E0,3.9010456E-1,-4.7332544E-2,-2.4249685E0,-1.3574094E0,-2.0501282E0,-1.5372849E0,-1.3243105E0,-1.2072368E0,8.8173693E-1,4.9956936E-1,-1.3217266E0,3.2308653E-1,2.1502192E-1,-1.7786604E0,-2.0182488E0,-1.3216738E0,3.8141397E-1,-1.3594577E0,2.1101886E-2,-1.4961574E0,-2.4805923E0,-1.3686033E0,-1.6343224E0,-1.3577063E0,4.0637317E-1,-1.2520914E0,-2.586225E-2,-1.499282E0,-2.6772587E0,-4.077774E-1,-1.4745023E0,-1.2668815E0,-2.3924599E0,-1.3768198E0,-1.6098565E0,-3.745289E-1,-1.3665186E0,-1.2339407E0,-1.2601718E0,-3.400922E-1,2.668205E-1,-8.8515663E-1,1.5343097E-1,-4.2116442E-1,-9.430212E-2,-4.1030937E-1,3.3143377E-1,-8.2400225E-2,6.795929E-2,-5.0943464E-1,-5.9017086E-1,-3.940018E-1,-6.6689E-1,-5.2529097E-1,-4.680182E-1,-3.3404619E-1,1.1842393E-1,-4.4215757E-1,-4.6067876E-1,-3.4512314E-1,1.1030813E-2,-4.1765878E-1,-5.22357E-1,-3.936618E-1,-9.4109005E-1,-6.652882E-1,-5.582569E-1,-3.8916576E-1,-5.670992E-1,-4.5317417E-1,-4.3594947E-1,-3.8348067E-1,1.8762425E-1,8.762775E-2,-2.5752524E-1,-4.5122066E-1,5.705902E-2,-4.4938996E-2,-4.9775314E-1,-4.2353675E-1,-1.0311265E0,-6.959015E-1,-4.663239E-1,-3.594009E-1,-4.1135916E-1,-3.4912178E-1,-9.9740726E-1,-6.722237E-1,-5.145177E-1,-3.797783E-1,-6.0553277E-1,-4.635961E-1,-4.4579598E-1,-3.9872277E-1,-3.6213103E-1,-3.9767098E-1,-4.0183324E-1,-3.6550257E-1],"categories":[],"categories_nodes":[],"categories_segments":[],"categories_sizes":[],"default_left":[0,0,0,0,0,0,0,0,0,0,0,0,0,0,0,0,0,0,0,0,0,0,0,0,0,0,0,0,0,0,0,0,0,0,0,0,0,0,0,0,0,0,0,0,0,0,0,0,0,0,0,0,0,0,0,0,0,0,0,0,0,0,0,0,0,0,0,0,0,0,0,0,0,0,0,0,0,0,0,0,0,0,0,0,0,0,0,0,0,0,0,0,0,0,0,0,0,0,0,0,0,0,0,0,0,0,0,0,0,0,0,0,0,0,0,0,0,0,0,0,0],"id":5,"left_children":[1,3,5,7,9,11,13,15,17,19,21,23,25,27,29,31,33,35,37,39,41,43,45,47,49,51,53,55,57,59,61,63,65,67,69,71,73,75,77,79,81,83,85,87,89,91,93,95,97,99,101,103,-1,105,107,109,111,113,-1,115,117,119,-1,-1,-1,-1,-1,-1,-1,-1,-1,-1,-1,-1,-1,-1,-1,-1,-1,-1,-1,-1,-1,-1,-1,-1,-1,-1,-1,-1,-1,-1,-1,-1,-1,-1,-1,-1,-1,-1,-1,-1,-1,-1,-1,-1,-1,-1,-1,-1,-1,-1,-1,-1,-1,-1,-1,-1,-1,-1,-1],"loss_changes":[1.0207054E4,5.4759004E3,2.2684578E4,1.6859111E3,3.176598E4,2.1398227E4,2.8778516E2,7.966377E2,7.5676636E2,2.1847139E3,4.4137695E2,2.7903442E3,2.8086523E2,9.034082E1,5.215625E1,6.660879E2,1.8679474E1,5.6382794E2,1.4994202E1,1.4104067E3,7.615262E2,9.6738525E1,1.27240234E2,8.965381E2,8.042603E2,6.4826416E1,1.00896484E2,1.1582446E2,2.1645752E1,2.496289E1,3.3379883E1,1.6516016E2,5.882549E2,1.023877E1,3.9265523E0,4.3122955E2,9.955383E0,3.407837E0,8.7789917E-1,1.260687E3,1.5528992E1,5.229989E2,1.2837463E1,7.66543E1,1.079483E0,6.0989258E1,7.711133E1,8.31147E2,3.1368591E1,6.808521E2,2.916809E0,4.769104E1,0E0,9.140234E1,5.7308594E1,4.0814087E1,4.4508057E0,2.05708E1,0E0,1.9285156E1,3.8950195E0,1.5572266E1,0E0,0E0,0E0,0E0,0E0,0E0,0E0,0E0,0E0,0E0,0E0,0E0,0E0,0E0,0E0,0E0,0E0,0E0,0E0,0E0,0E0,0E0,0E0,0E0,0E0,0E0,0E0,0E0,0E0,0E0,0E0,0E0,0E0,0E0,0E0,0E0,0E0,0E0,0E0,0E0,0E0,0E0,0E0,0E0,0E0,0E0,0E0,0E0,0E0,0E0,0E0,0E0,0E0,0E0,0E0,0E0,0E0,0E0,0E0],"parents":[2147483647,0,0,1,1,2,2,3,3,4,4,5,5,6,6,7,7,8,8,9,9,10,10,11,11,12,12,13,13,14,14,15,15,16,16,17,17,18,18,19,19,20,20,21,21,22,22,23,23,24,24,25,25,26,26,27,27,28,28,29,29,30,30,31,31,32,32,33,33,34,34,35,35,36,36,37,37,38,38,39,39,40,40,41,41,42,42,43,43,44,44,45,45,46,46,47,47,48,48,49,49,50,50,51,51,53,53,54,54,55,55,56,56,57,57,59,59,60,60,61,61],"right_children":[2,4,6,8,10,12,14,16,18,20,22,24,26,28,30,32,34,36,38,40,42,44,46,48,50,52,54,56,58,60,62,64,66,68,70,72,74,76,78,80,82,84,86,88,90,92,94,96,98,100,102,104,-1,106,108,110,112,114,-1,116,118,120,-1,-1,-1,-1,-1,-1,-1,-1,-1,-1,-1,-1,-1,-1,-1,-1,-1,-1,-1,-1,-1,-1,-1,-1,-1,-1,-1,-1,-1,-1,-1,-1,-1,-1,-1,-1,-1,-1,-1,-1,-1,-1,-1,-1,-1,-1,-1,-1,-1,-1,-1,-1,-1,-1,-1,-1,-1,-1,-1],"split_conditions":[1E0,1E0,1E0,1.318E1,1E0,1E0,1.100661E1,1E0,1E0,1.5685679E1,8.49E0,1.5823064E1,8.24E0,1E0,1E0,7.35E0,8.93E1,1E0,1E0,1E0,1E0,1E0,1.100661E1,1E0,1E0,1E0,1E0,1E0,1E0,8.249624E-3,1E0,1E0,1E0,1.5E3,5E4,1E0,1E0,1E0,1E0,1E0,1.4402381E1,1E0,1E0,1E0,1E0,1E0,1E0,1.538E1,2.2677835E-2,1.768E1,1E0,1E0,-4.077774E-1,1E0,1E0,8.24E0,1E0,8.24E0,-3.745289E-1,1E0,1E0,1E0,-3.400922E-1,2.668205E-1,-8.8515663E-1,1.5343097E-1,-4.2116442E-1,-9.430212E-2,-4.1030937E-1,3.3143377E-1,-8.2400225E-2,6.795929E-2,-5.0943464E-1,-5.9017086E-1,-3.940018E-1,-6.6689E-1,-5.2529097E-1,-4.680182E-1,-3.3404619E-1,1.1842393E-1,-4.4215757E-1,-4.6067876E-1,-3.4512314E-1,1.1030813E-2,-4.1765878E-1,-5.22357E-1,-3.936618E-1,-9.4109005E-1,-6.652882E-1,-5.582569E-1,-3.8916576E-1,-5.670992E-1,-4.5317417E-1,-4.3594947E-1,-3.8348067E-1,1.8762425E-1,8.762775E-2,-2.5752524E-1,-4.5122066E-1,5.705902E-2,-4.4938996E-2,-4.9775314E-1,-4.2353675E-1,-1.0311265E0,-6.959015E-1,-4.663239E-1,-3.594009E-1,-4.1135916E-1,-3.4912178E-1,-9.9740726E-1,-6.722237E-1,-5.145177E-1,-3.797783E-1,-6.0553277E-1,-4.635961E-1,-4.4579598E-1,-3.9872277E-1,-3.6213103E-1,-3.9767098E-1,-4.0183324E-1,-3.6550257E-1],"split_indices":[72,71,71,3,70,70,3,25,21,3,3,3,3,51,69,3,11,20,69,29,24,69,3,29,25,69,48,69,69,1,68,18,26,5,0,19,69,48,68,30,3,23,69,51,68,51,48,7,4,7,69,51,0,50,51,3,68,3,0,51,1,48,0,0,0,0,0,0,0,0,0,0,0,0,0,0,0,0,0,0,0,0,0,0,0,0,0,0,0,0,0,0,0,0,0,0,0,0,0,0,0,0,0,0,0,0,0,0,0,0,0,0,0,0,0,0,0,0,0,0,0],"split_type":[0,0,0,0,0,0,0,0,0,0,0,0,0,0,0,0,0,0,0,0,0,0,0,0,0,0,0,0,0,0,0,0,0,0,0,0,0,0,0,0,0,0,0,0,0,0,0,0,0,0,0,0,0,0,0,0,0,0,0,0,0,0,0,0,0,0,0,0,0,0,0,0,0,0,0,0,0,0,0,0,0,0,0,0,0,0,0,0,0,0,0,0,0,0,0,0,0,0,0,0,0,0,0,0,0,0,0,0,0,0,0,0,0,0,0,0,0,0,0,0,0],"sum_hessian":[2.2688917E5,1.400416E5,8.684757E4,5.167045E4,8.837115E4,6.928461E4,1.756296E4,3.1777947E4,1.9892502E4,7.536173E4,1.3009418E4,5.933722E4,9.947391E3,1.6432585E3,1.5919701E4,3.1541822E4,2.3612448E2,1.9708393E4,1.841093E2,5.14112E4,2.395053E4,5.818275E2,1.242759E4,3.3537723E4,2.5799498E4,2.5364362E2,9.693747E3,5.157952E2,1.1274633E3,6.985509E3,8.934192E3,5.5325254E3,2.6009297E4,2.2937053E2,6.7539406E0,1.9566496E4,1.4189786E2,1.3241801E2,5.1691273E1,5.094248E4,4.687189E2,2.3616031E4,3.3449902E2,4.8341086E2,9.841664E1,2.0143928E3,1.0413197E4,3.320948E4,3.2824133E2,2.5424557E4,3.7494067E2,2.0386873E2,4.9774887E1,4.2200474E3,5.4736997E3,3.4024857E2,1.7554668E2,8.974225E2,2.3004079E2,4.7519478E3,2.2335613E3,5.187139E3,3.7470537E3,5.5222485E3,1.0276752E1,2.5848873E4,1.6042522E2,1.0352387E1,2.1901814E2,2.55912E0,4.194821E0,1.9450367E4,1.16127945E2,9.8679405E1,4.3218456E1,7.0841255E1,6.1576763E1,2.107056E1,3.0620712E1,5.0579785E4,3.626921E2,2.5093863E2,2.1778027E2,2.3358062E4,2.5796802E2,1.398056E2,1.9469344E2,1.351472E2,3.4826367E2,9.289525E0,8.912711E1,6.517391E2,1.3626538E3,4.721806E3,5.691391E3,1.1384473E4,2.1825008E4,1.2982207E2,1.9841927E2,9.267565E3,1.6156992E4,1.26250984E2,2.486897E2,6.2484573E1,1.4138416E2,3.2702856E3,9.4976196E2,2.7152593E3,2.7584404E3,4.4695637E1,2.9555292E2,3.977146E1,1.357752E2,1.1828311E2,7.791394E2,1.124702E3,3.6272456E3,1.7385347E3,4.9502652E2,1.7809762E3,3.4061628E3],"tree_param":{"num_deleted":"0","num_feature":"73","num_nodes":"121","size_leaf_vector":"1"}},{"base_weights":[-1.7987387E-2,2.264247E-1,-1.3976724E-1,3.937353E-1,5.7947796E-2,-1.8921584E-2,-1.39116E0,4.0884694E-1,-1.181088E0,7.2242595E-2,-1.4446385E0,2.42152E-2,-1.3742833E0,-1.5509226E0,-1.2036264E0,4.2195782E-1,-1.3124585E0,8.9560694E-1,-1.204638E0,8.287909E-2,-1.4216332E0,-1.5313499E0,-1.2773595E0,6.5280944E-2,-1.383334E0,-1.591969E0,-1.2888155E0,-1.7052981E0,-1.3600429E0,-1.2788719E0,-1.1204077E0,4.334841E-1,-1.3903625E0,1.1633877E0,-1.3498875E0,3.7684864E-1,4.0444583E-2,-4.2019993E-1,-1.2391373E0,1.2489902E-1,-1.9210798E-1,-1.5387113E0,-3.711514E-1,-1.6741422E0,-1.3757703E0,-4.4899994E-1,-3.3350918E-1,2.0607191E-1,-1.5936722E-1,-1.50951E0,-1.227917E0,-1.654797E0,-1.2663791E0,-1.3447155E0,-1.2049243E0,-2.2587292E0,-1.650099E0,-1.4514513E0,-1.2779919E0,-1.5348903E0,-1.2399291E0,-3.5978505E-1,-3.300585E-1,2.2975813E-1,1.1446856E-1,-1.6421278E-1,-4.2410788E-1,5.153182E-1,-3.0668437E-2,-1.4945687E-2,-4.0739945E-1,-3.043039E-1,2.5126484E-1,-3.935698E-1,-2.691838E-1,8.193557E-2,1.6000675E-2,-8.718828E-3,-4.602932E-1,-5.263656E-1,-4.077675E-1,-5.7235456E-1,-4.3888944E-1,-4.498776E-1,-3.4666497E-1,6.714468E-2,-4.6161506E-1,1.1795364E-2,-3.644717E-1,-5.33663E-1,-4.130753E-1,-5.2244455E-1,-3.6356232E-1,-6.6648847E-1,-4.833635E-1,-4.5461595E-1,-3.514028E-1,-4.2917576E-1,-3.8214573E-1,-3.8497198E-1,-3.25266E-1,-8.3865047E-1,-6.109317E-1,-5.73021E-1,-4.701384E-1,-5.1220405E-1,-4.1143432E-1,-4.054029E-1,-3.470343E-1,-5.032486E-1,-4.2505667E-1,-3.9626488E-1,-3.5851046E-1],"categories":[],"categories_nodes":[],"categories_segments":[],"categories_sizes":[],"default_left":[0,0,0,0,0,0,0,0,0,0,0,0,0,0,0,0,0,0,0,0,0,0,0,0,0,0,0,0,0,0,0,0,0,0,0,0,0,0,0,0,0,0,0,0,0,0,0,0,0,0,0,0,0,0,0,0,0,0,0,0,0,0,0,0,0,0,0,0,0,0,0,0,0,0,0,0,0,0,0,0,0,0,0,0,0,0,0,0,0,0,0,0,0,0,0,0,0,0,0,0,0,0,0,0,0,0,0,0,0,0,0,0,0],"id":6,"left_children":[1,3,5,7,9,11,13,15,17,19,21,23,25,27,29,31,33,35,37,39,41,43,45,47,49,51,53,55,57,59,61,63,65,67,69,-1,-1,71,73,75,77,79,-1,81,83,-1,-1,85,87,89,91,93,95,97,99,101,103,105,107,109,111,-1,-1,-1,-1,-1,-1,-1,-1,-1,-1,-1,-1,-1,-1,-1,-1,-1,-1,-1,-1,-1,-1,-1,-1,-1,-1,-1,-1,-1,-1,-1,-1,-1,-1,-1,-1,-1,-1,-1,-1,-1,-1,-1,-1,-1,-1,-1,-1,-1,-1,-1,-1],"loss_changes":[6.3165537E3,1.989334E3,2.1420018E4,8.431699E2,7.5543976E2,7.552105E3,3.7185742E2,7.920952E2,1.7551025E1,5.536398E2,2.8515015E0,7.236164E3,7.207617E1,1.9605566E2,3.4526367E1,7.27751E2,2.6162354E1,1.0239494E0,8.503601E0,3.997113E2,3.4162598E0,2.4344788E0,2.6661835E0,3.847292E3,6.7739746E1,2.079541E1,1.1821289E1,1.0985547E2,2.075879E1,2.8094238E1,3.0410156E0,5.966582E2,3.557434E0,3.3251433E0,2.693756E0,0E0,0E0,1.2477943E1,6.755249E0,3.1825964E2,1.0034215E3,3.2940063E0,0E0,2.4694824E0,1.2031555E0,0E0,0E0,2.3153425E3,9.82834E3,6.735156E1,1.1035156E1,1.9514404E1,2.609314E0,8.59668E0,9.534424E0,3.421826E1,7.001074E1,2.6706543E1,1.2637939E1,4.2387695E0,7.9311523E0,0E0,0E0,0E0,0E0,0E0,0E0,0E0,0E0,0E0,0E0,0E0,0E0,0E0,0E0,0E0,0E0,0E0,0E0,0E0,0E0,0E0,0E0,0E0,0E0,0E0,0E0,0E0,0E0,0E0,0E0,0E0,0E0,0E0,0E0,0E0,0E0,0E0,0E0,0E0,0E0,0E0,0E0,0E0,0E0,0E0,0E0,0E0,0E0,0E0,0E0,0E0,0E0],"parents":[2147483647,0,0,1,1,2,2,3,3,4,4,5,5,6,6,7,7,8,8,9,9,10,10,11,11,12,12,13,13,14,14,15,15,16,16,17,17,18,18,19,19,20,20,21,21,22,22,23,23,24,24,25,25,26,26,27,27,28,28,29,29,30,30,31,31,32,32,33,33,34,34,37,37,38,38,39,39,40,40,41,41,43,43,44,44,47,47,48,48,49,49,50,50,51,51,52,52,53,53,54,54,55,55,56,56,57,57,58,58,59,59,60,60],"right_children":[2,4,6,8,10,12,14,16,18,20,22,24,26,28,30,32,34,36,38,40,42,44,46,48,50,52,54,56,58,60,62,64,66,68,70,-1,-1,72,74,76,78,80,-1,82,84,-1,-1,86,88,90,92,94,96,98,100,102,104,106,108,110,112,-1,-1,-1,-1,-1,-1,-1,-1,-1,-1,-1,-1,-1,-1,-1,-1,-1,-1,-1,-1,-1,-1,-1,-1,-1,-1,-1,-1,-1,-1,-1,-1,-1,-1,-1,-1,-1,-1,-1,-1,-1,-1,-1,-1,-1,-1,-1,-1,-1,-1,-1,-1],"split_conditions":[1E0,1.318E1,1E0,1E0,1E0,1E0,1E0,1E0,1E0,1E0,1E0,1E0,1.3014773E1,1.3014773E1,1E0,1E0,1.011436E3,7.0857974E3,1.75E3,1E0,1E0,1E0,1E0,1E0,1E0,1E0,1E0,8.24E0,1E0,1.3014773E1,1.1597514E1,7.35E0,1.011436E3,7.026781E2,6.03E0,3.7684864E-1,4.0444583E-2,1.8E3,1.2937296E1,1.379E1,1E0,1E0,-3.711514E-1,1E0,1E0,-4.4899994E-1,-3.3350918E-1,1E0,1E0,1.299E1,8.24E0,8.24E0,1E0,1E0,1E0,1E0,1E0,1E0,1E0,1.1597514E1,1E0,-3.5978505E-1,-3.300585E-1,2.2975813E-1,1.1446856E-1,-1.6421278E-1,-4.2410788E-1,5.153182E-1,-3.0668437E-2,-1.4945687E-2,-4.0739945E-1,-3.043039E-1,2.5126484E-1,-3.935698E-1,-2.691838E-1,8.193557E-2,1.6000675E-2,-8.718828E-3,-4.602932E-1,-5.263656E-1,-4.077675E-1,-5.7235456E-1,-4.3888944E-1,-4.498776E-1,-3.4666497E-1,6.714468E-2,-4.6161506E-1,1.1795364E-2,-3.644717E-1,-5.33663E-1,-4.130753E-1,-5.2244455E-1,-3.6356232E-1,-6.6648847E-1,-4.833635E-1,-4.5461595E-1,-3.514028E-1,-4.2917576E-1,-3.8214573E-1,-3.8497198E-1,-3.25266E-1,-8.3865047E-1,-6.109317E-1,-5.73021E-1,-4.701384E-1,-5.1220405E-1,-4.1143432E-1,-4.054029E-1,-3.470343E-1,-5.032486E-1,-4.2505667E-1,-3.9626488E-1,-3.5851046E-1],"split_indices":[56,3,55,25,21,63,69,26,11,20,69,58,3,3,68,27,5,5,5,50,70,72,68,72,51,69,69,3,72,3,3,3,5,12,3,0,0,6,3,7,48,72,0,70,71,0,0,60,71,3,3,3,68,72,68,51,51,71,71,3,48,0,0,0,0,0,0,0,0,0,0,0,0,0,0,0,0,0,0,0,0,0,0,0,0,0,0,0,0,0,0,0,0,0,0,0,0,0,0,0,0,0,0,0,0,0,0,0,0,0,0,0,0],"split_type":[0,0,0,0,0,0,0,0,0,0,0,0,0,0,0,0,0,0,0,0,0,0,0,0,0,0,0,0,0,0,0,0,0,0,0,0,0,0,0,0,0,0,0,0,0,0,0,0,0,0,0,0,0,0,0,0,0,0,0,0,0,0,0,0,0,0,0,0,0,0,0,0,0,0,0,0,0,0,0,0,0,0,0,0,0,0,0,0,0,0,0,0,0,0,0,0,0,0,0,0,0,0,0,0,0,0,0,0,0,0,0,0,0],"sum_hessian":[2.1221586E5,7.057368E4,1.4164217E5,3.5408734E4,3.5164945E4,1.2916944E5,1.247274E4,3.507292E4,3.3581143E2,3.48345E4,3.3044485E2,1.2518615E5,3.9832888E3,6.7311255E3,5.7416143E3,3.4808547E4,2.6437555E2,3.3502262E0,3.324612E2,3.4589168E4,2.4533252E2,2.1226167E2,1.1818318E2,1.21638266E5,3.5478853E3,1.1180348E3,2.8652542E3,3.7170205E3,3.014105E3,3.0077097E3,2.7339048E3,3.458932E4,2.1922585E2,3.4892077E0,2.6088635E2,1.8312386E0,1.5189875E0,1.4560787E1,3.1790042E2,3.0004775E4,4.584393E3,1.4558688E2,9.9745636E1,1.0558975E2,1.0667193E2,4.739988E1,7.07833E1,7.477533E4,4.6862938E4,1.9533431E3,1.5945421E3,9.337669E2,1.8426784E2,1.7104713E3,1.1547827E3,3.3349103E2,3.3835295E3,1.4178595E3,1.5962455E3,3.9202618E2,2.6156833E3,5.4578143E2,2.1881233E3,4.6714775E3,2.9917842E4,6.562639E0,2.1266321E2,2.1780121E0,1.3111956E0,1.6617686E0,2.5922458E2,1.0020663E1,4.540124E0,2.5977222E2,5.812822E1,9.768926E3,2.0235852E4,4.0887324E3,4.9566058E2,6.2115166E1,8.347172E1,4.6307632E1,5.928212E1,6.456176E1,4.211017E1,7.4023414E4,7.5191144E2,3.9440055E4,7.4228804E3,6.4024524E2,1.3130979E3,4.504318E1,1.5494989E3,6.3105072E1,8.7066187E2,4.6772587E1,1.3749525E2,7.648722E2,9.455992E2,6.9452783E2,4.602549E2,9.427233E1,2.392187E2,8.132802E2,2.5702493E3,3.3285754E2,1.085002E3,9.8812854E2,6.08117E2,1.7155214E2,2.2047404E2,9.2296387E2,1.6927196E3],"tree_param":{"num_deleted":"0","num_feature":"73","num_nodes":"113","size_leaf_vector":"1"}},{"base_weights":[-1.8572845E-2,1.4817785E-1,-1.7105417E-1,6.0373645E-2,4.093677E-1,-3.1528334E-4,-1.1791658E0,7.541368E-2,-1.5568653E0,6.976045E-1,3.1690973E-1,6.1775945E-2,-1.1787995E0,-1.649355E0,-1.1634967E0,1.5003589E-1,-1.9257355E-1,-1.7877104E0,-1.3967443E0,7.0614725E-1,-2.816004E0,4.0111846E-1,-1.6302947E-3,1.4421278E-1,-2.6163998E-1,-1.6712813E0,-1.1636298E0,-1.7301258E0,-3.774276E-1,-1.266513E0,-1.1483811E0,2.5756174E-1,-2.4526734E-2,1.9591528E-1,-1.4445771E0,-1.9852852E0,-1.555755E0,-1.5287818E0,-3.3907807E-1,8.3267856E-1,6.008297E-1,-8.8147175E-1,-2.785856E-1,4.0863794E-1,-1.4518046E0,3.5051265E-1,-1.5293441E0,2.7123082E-1,-2.2874726E-2,-1.4472904E0,1.9756362E-1,-1.734979E0,-3.6916316E-1,-1.280678E0,-1.1470363E0,-1.7582612E0,-3.4808472E-1,-1.2990892E0,-3.4151423E-1,-1.1855922E0,-1.1222471E0,5.0649643E-2,1.296291E-1,2.1009773E-2,-3.372938E-1,3.0277014E-2,9.778804E-2,-5.324127E-1,-4.124439E-1,-7.423378E-1,-5.2332E-1,-4.961749E-1,-4.0770045E-1,-4.8791105E-1,-4.3100938E-1,2.5154948E-1,-6.27503E-1,1.8562609E-1,-4.9115697E-1,1.245921E-1,-4.9524188E-1,2.561734E-2,-5.147772E-1,1.1393968E-1,-1.5704735E-1,-5.128165E-1,-4.2411616E-1,8.8584244E-2,-3.1143445E-1,2.135559E-2,-1.0007484E-1,-6.846506E-1,-4.293081E-1,9.215242E-2,-8.425746E-3,-5.27966E-1,-2.787936E-1,-3.9205828E-1,-3.2955024E-1,-3.54058E-1,-3.37348E-1,-5.354527E-1,-3.2686228E-1,-4.0058324E-1,-3.7009823E-1,-3.672838E-1,-3.4373972E-1,-3.436154E-1,-3.250531E-1],"categories":[],"categories_nodes":[],"categories_segments":[],"categories_sizes":[],"default_left":[0,0,0,0,0,0,0,0,0,0,0,0,0,0,0,0,0,0,0,0,0,0,0,0,0,0,0,0,0,0,0,0,0,0,0,0,0,0,0,0,0,0,0,0,0,0,0,0,0,0,0,0,0,0,0,0,0,0,0,0,0,0,0,0,0,0,0,0,0,0,0,0,0,0,0,0,0,0,0,0,0,0,0,0,0,0,0,0,0,0,0,0,0,0,0,0,0,0,0,0,0,0,0,0,0,0,0,0,0],"id":7,"left_children":[1,3,5,7,9,11,13,15,17,19,21,23,25,27,29,31,33,35,37,39,41,43,45,47,49,51,53,55,-1,57,59,61,63,65,67,69,71,73,-1,75,77,-1,-1,79,81,83,85,87,89,91,93,95,-1,97,99,101,-1,103,-1,105,107,-1,-1,-1,-1,-1,-1,-1,-1,-1,-1,-1,-1,-1,-1,-1,-1,-1,-1,-1,-1,-1,-1,-1,-1,-1,-1,-1,-1,-1,-1,-1,-1,-1,-1,-1,-1,-1,-1,-1,-1,-1,-1,-1,-1,-1,-1,-1,-1],"loss_changes":[5.1474434E3,2.2176064E3,1.8201586E4,1.7604149E3,6.4812305E2,6.6173125E3,1.1091992E2,1.4339684E3,2.2153076E1,1.7931519E2,4.9413892E2,2.290436E3,3.1870117E1,1.3357422E1,2.163086E1,1.0527723E3,7.5967856E3,9.264465E0,1.228772E1,7.804492E1,6.2348175E-1,2.0359692E2,2.0731748E3,1.4529027E3,9.500903E3,1.5978088E0,7.065918E0,4.449585E0,0E0,6.3986816E0,1.1251953E1,5.37437E2,2.223523E3,1.4722299E2,8.274609E1,1.2408997E1,2.3620605E-1,3.1433105E-2,0E0,4.7276245E1,1.301936E2,0E0,0E0,1.9999829E2,2.41446E1,8.0361145E1,1.2611206E1,1.2250239E3,8.641128E2,6.2882812E1,3.1113608E2,6.4678955E-1,0E0,1.1259155E0,1.5561523E0,4.8771973E0,0E0,1.8984375E0,0E0,6.7875977E0,5.5898438E0,0E0,0E0,0E0,0E0,0E0,0E0,0E0,0E0,0E0,0E0,0E0,0E0,0E0,0E0,0E0,0E0,0E0,0E0,0E0,0E0,0E0,0E0,0E0,0E0,0E0,0E0,0E0,0E0,0E0,0E0,0E0,0E0,0E0,0E0,0E0,0E0,0E0,0E0,0E0,0E0,0E0,0E0,0E0,0E0,0E0,0E0,0E0,0E0],"parents":[2147483647,0,0,1,1,2,2,3,3,4,4,5,5,6,6,7,7,8,8,9,9,10,10,11,11,12,12,13,13,14,14,15,15,16,16,17,17,18,18,19,19,20,20,21,21,22,22,23,23,24,24,25,25,26,26,27,27,29,29,30,30,31,31,32,32,33,33,34,34,35,35,36,36,37,37,39,39,40,40,43,43,44,44,45,45,46,46,47,47,48,48,49,49,50,50,51,51,53,53,54,54,55,55,57,57,59,59,60,60],"right_children":[2,4,6,8,10,12,14,16,18,20,22,24,26,28,30,32,34,36,38,40,42,44,46,48,50,52,54,56,-1,58,60,62,64,66,68,70,72,74,-1,76,78,-1,-1,80,82,84,86,88,90,92,94,96,-1,98,100,102,-1,104,-1,106,108,-1,-1,-1,-1,-1,-1,-1,-1,-1,-1,-1,-1,-1,-1,-1,-1,-1,-1,-1,-1,-1,-1,-1,-1,-1,-1,-1,-1,-1,-1,-1,-1,-1,-1,-1,-1,-1,-1,-1,-1,-1,-1,-1,-1,-1,-1,-1,-1],"split_conditions":[1E0,7.12E2,1E0,7.073173E2,7.97E0,1E0,8.24E0,1E0,1E0,1E0,1E0,8.249624E-3,8.24E0,1E0,1.100661E1,1E0,1E0,1E0,1E0,6.72E0,1E0,1E0,1E0,1.4525944E1,1E0,1E0,1.100661E1,1E0,-3.774276E-1,1E0,1E0,3E0,1E0,1E0,1.1597514E1,1E0,1E0,1E0,-3.3907807E-1,1E0,1E0,-8.8147175E-1,-2.785856E-1,1E0,2.2677835E-2,1E0,1E0,1E0,1E0,8.39E0,2.158E1,1E0,-3.6916316E-1,1E0,1E0,1E0,-3.4808472E-1,1E0,-3.4151423E-1,1E0,1E0,5.0649643E-2,1.296291E-1,2.1009773E-2,-3.372938E-1,3.0277014E-2,9.778804E-2,-5.324127E-1,-4.124439E-1,-7.423378E-1,-5.2332E-1,-4.961749E-1,-4.0770045E-1,-4.8791105E-1,-4.3100938E-1,2.5154948E-1,-6.27503E-1,1.8562609E-1,-4.9115697E-1,1.245921E-1,-4.9524188E-1,2.561734E-2,-5.147772E-1,1.1393968E-1,-1.5704735E-1,-5.128165E-1,-4.2411616E-1,8.8584244E-2,-3.1143445E-1,2.135559E-2,-1.0007484E-1,-6.846506E-1,-4.293081E-1,9.215242E-2,-8.425746E-3,-5.27966E-1,-2.787936E-1,-3.9205828E-1,-3.2955024E-1,-3.54058E-1,-3.37348E-1,-5.354527E-1,-3.2686228E-1,-4.0058324E-1,-3.7009823E-1,-3.672838E-1,-3.4373972E-1,-3.436154E-1,-3.250531E-1],"split_indices":[51,12,48,12,3,50,3,50,69,18,50,1,3,69,3,69,48,72,68,3,69,15,48,3,1,69,3,21,0,69,71,4,68,4,3,71,71,72,0,17,13,0,0,14,4,53,69,27,70,3,7,19,0,69,71,19,0,72,0,70,72,0,0,0,0,0,0,0,0,0,0,0,0,0,0,0,0,0,0,0,0,0,0,0,0,0,0,0,0,0,0,0,0,0,0,0,0,0,0,0,0,0,0,0,0,0,0,0,0],"split_type":[0,0,0,0,0,0,0,0,0,0,0,0,0,0,0,0,0,0,0,0,0,0,0,0,0,0,0,0,0,0,0,0,0,0,0,0,0,0,0,0,0,0,0,0,0,0,0,0,0,0,0,0,0,0,0,0,0,0,0,0,0,0,0,0,0,0,0,0,0,0,0,0,0,0,0,0,0,0,0,0,0,0,0,0,0,0,0,0,0,0,0,0,0,0,0,0,0,0,0,0,0,0,0,0,0,0,0,0,0],"sum_hessian":[2.0244308E5,9.669705E4,1.0574602E5,7.236974E4,2.4327305E4,9.043115E4,1.5314878E4,7.170387E4,6.658798E2,5.9066973E3,1.8420607E4,8.590594E4,4.52521E3,4.9054575E2,1.4824332E4,5.6086715E4,1.5617149E4,2.685495E2,3.9733035E2,5.893168E3,1.3529359E1,1.4568931E4,3.8516772E3,6.8457164E4,1.744878E4,1.3196117E2,4.3932485E3,4.0377103E2,8.677473E1,1.8862587E3,1.2938073E4,3.4707414E4,2.13793E4,1.191946E4,3.6976897E3,1.4094046E2,1.27609055E2,2.6252002E2,1.348103E2,2.6738398E3,3.219328E3,1.2183526E1,1.3458328E0,1.4510822E4,5.8108116E1,3.1307905E3,7.2088666E2,3.889159E4,2.956557E4,4.8706777E3,1.2578101E4,1.1273201E2,1.9229156E1,5.360224E2,3.8572263E3,3.8278583E2,2.0985186E1,1.4966205E3,3.8963815E2,5.3195215E3,7.618552E3,2.3011088E4,1.1696325E4,1.968751E4,1.6917908E3,6.8890757E3,5.0303843E3,6.408199E2,3.0568699E3,4.3444252E1,9.749621E1,8.019394E1,4.741511E1,1.1936169E2,1.4315834E2,2.6692412E3,4.598686E0,3.1944675E3,2.486043E1,1.4464779E4,4.6042553E1,8.61937E0,4.9488747E1,3.0298318E3,1.0095871E2,2.7651895E2,4.4436774E2,3.8190875E4,7.007132E2,2.2695713E4,6.869857E3,9.0406334E1,4.7802715E3,8.465535E3,4.112566E3,1.08202484E2,4.5295305E0,4.632672E2,7.2755196E1,1.5403126E3,2.3169138E3,3.6654688E2,1.6238968E1,9.5114087E2,5.454796E2,2.6821453E3,2.6373762E3,4.75175E3,2.8668015E3],"tree_param":{"num_deleted":"0","num_feature":"73","num_nodes":"109","size_leaf_vector":"1"}},{"base_weights":[-1.9451143E-2,4.872188E-2,-2.7427003E-1,-3.357811E-2,2.4997523E-1,-1.2895923E0,1.5471186E-1,-1.3063907E-2,-1.439611E0,5.474007E-1,1.7954692E-1,-1.4446943E0,-1.2106977E0,2.1409486E-1,-2.0167965E-1,1.8106638E-1,-1.04810335E-1,-1.5995916E0,-1.2751393E0,5.595408E-1,-1.7656144E0,1.939477E-1,-8.698388E-1,-2.0117178E0,-1.427013E0,-1.2767999E0,-1.1095953E0,3.4645757E-1,1.11696996E-1,-1.361105E0,2.7313054E-1,2.9372355E-1,6.30317E-2,-1.3792807E-1,3.6040562E-1,-1.7213647E0,-1.4561827E0,-1.3850794E0,-3.3020955E-1,2.4593915E-1,6.116534E-1,-5.485813E-1,-3.037544E-1,2.0357409E-1,-1.3859106E0,-2.2820292E-1,-1.3489599E0,-2.1542892E0,-3.7782708E-1,-1.507108E0,-1.3482398E0,-1.3147455E0,-1.1079694E0,-4.20415E-1,-3.3010137E-1,2.5053957E-1,4.8962188E-1,1.5921718E-1,-1.6907342E-1,-1.440974E0,-1.2510445E0,3.6399606E-1,4.3981634E-2,5.061576E-2,1.1481386E-1,4.984274E-2,-3.8744667E-1,-3.197814E-2,-4.29349E-1,1.3034484E-1,7.233578E-2,-6.1521244E-1,-4.8258433E-1,-4.708648E-1,-3.7698922E-1,-4.460629E-1,-3.827115E-1,-7.326192E-2,8.8982984E-2,1.8527679E-1,-5.2819455E-1,6.342881E-2,-4.4300112E-1,-1.2427731E-1,-4.6088222E-1,-2.8737256E-2,-6.1691225E-1,-4.30581E-1,-2.5100324E-1,-6.71851E-1,-4.0779155E-1,-4.7140363E-1,-4.0890214E-1,-4.3753776E-1,-3.4370986E-1,-5.6259394E-1,-3.913547E-1,-4.339654E-1,-3.2813284E-1,8.570809E-2,-4.441467E-1,1.6889238E-1,1.04172625E-1,2.3637842E-2,8.898103E-2,1.6932766E-4,-1.028604E-1,-4.5792615E-1,-3.9866224E-1,-4.1094527E-1,-3.2815725E-1,1.2876566E-1,4.0708736E-2,-1.28912395E-2,8.424415E-2],"categories":[],"categories_nodes":[],"categories_segments":[],"categories_sizes":[],"default_left":[0,0,0,0,0,0,0,0,0,0,0,0,0,0,0,0,0,0,0,0,0,0,0,0,0,0,0,0,0,0,0,0,0,0,0,0,0,0,0,0,0,0,0,0,0,0,0,0,0,0,0,0,0,0,0,0,0,0,0,0,0,0,0,0,0,0,0,0,0,0,0,0,0,0,0,0,0,0,0,0,0,0,0,0,0,0,0,0,0,0,0,0,0,0,0,0,0,0,0,0,0,0,0,0,0,0,0,0,0,0,0,0,0,0,0],"id":8,"left_children":[1,3,5,7,9,11,13,15,17,19,21,23,25,27,29,31,33,35,37,39,41,43,45,47,49,51,53,55,57,59,61,63,65,67,69,71,73,75,-1,77,79,-1,-1,81,83,85,87,89,-1,91,93,95,97,-1,-1,99,101,103,105,107,109,111,113,-1,-1,-1,-1,-1,-1,-1,-1,-1,-1,-1,-1,-1,-1,-1,-1,-1,-1,-1,-1,-1,-1,-1,-1,-1,-1,-1,-1,-1,-1,-1,-1,-1,-1,-1,-1,-1,-1,-1,-1,-1,-1,-1,-1,-1,-1,-1,-1,-1,-1,-1,-1],"loss_changes":[3.3191611E3,2.4967163E3,1.7565188E4,3.0859167E3,9.163677E2,1.4482422E2,6.0004614E2,1.8781796E3,3.844214E1,2.3618921E2,5.347743E2,3.7566406E1,5.1685547E1,3.2934253E2,2.229763E3,4.5000354E2,1.1033251E3,1.1044312E1,1.3118652E1,1.3603296E2,2.3451233E-1,5.310255E2,1.4697198E2,1.0106873E1,2.2668457E1,2.9280762E1,6.963867E0,1.4543091E2,1.8286166E2,8.541504E0,5.982437E1,1.9255432E2,2.3086357E3,2.7088208E3,4.1949463E1,1.20802E1,6.235718E0,3.2748413E0,0E0,2.9604782E1,1.0170093E2,0E0,0E0,4.5814746E2,3.0261322E1,4.96722E1,1.0917175E1,3.6676636E0,0E0,1.5748535E1,4.260205E1,1.9987305E1,2.6794434E0,0E0,0E0,3.867857E2,4.4206055E1,1.2947736E2,5.8494556E1,4.4403076E0,7.882019E0,3.0582703E1,1.6840141E1,0E0,0E0,0E0,0E0,0E0,0E0,0E0,0E0,0E0,0E0,0E0,0E0,0E0,0E0,0E0,0E0,0E0,0E0,0E0,0E0,0E0,0E0,0E0,0E0,0E0,0E0,0E0,0E0,0E0,0E0,0E0,0E0,0E0,0E0,0E0,0E0,0E0,0E0,0E0,0E0,0E0,0E0,0E0,0E0,0E0,0E0,0E0,0E0,0E0,0E0,0E0,0E0],"parents":[2147483647,0,0,1,1,2,2,3,3,4,4,5,5,6,6,7,7,8,8,9,9,10,10,11,11,12,12,13,13,14,14,15,15,16,16,17,17,18,18,19,19,20,20,21,21,22,22,23,23,24,24,25,25,26,26,27,27,28,28,29,29,30,30,31,31,32,32,33,33,34,34,35,35,36,36,37,37,39,39,40,40,43,43,44,44,45,45,46,46,47,47,49,49,50,50,51,51,52,52,55,55,56,56,57,57,58,58,59,59,60,60,61,61,62,62],"right_children":[2,4,6,8,10,12,14,16,18,20,22,24,26,28,30,32,34,36,38,40,42,44,46,48,50,52,54,56,58,60,62,64,66,68,70,72,74,76,-1,78,80,-1,-1,82,84,86,88,90,-1,92,94,96,98,-1,-1,100,102,104,106,108,110,112,114,-1,-1,-1,-1,-1,-1,-1,-1,-1,-1,-1,-1,-1,-1,-1,-1,-1,-1,-1,-1,-1,-1,-1,-1,-1,-1,-1,-1,-1,-1,-1,-1,-1,-1,-1,-1,-1,-1,-1,-1,-1,-1,-1,-1,-1,-1,-1,-1,-1,-1,-1,-1],"split_conditions":[8.249624E-3,7.07E2,1E0,7.026781E2,7.97E0,1E0,1.0318235E0,1.4681767E1,1E0,1E0,1E0,8.49E0,1E0,1.615E1,2E0,1E0,7.02E2,1E0,1E0,4.012863E4,1E0,1E0,8.67E0,1E0,1E0,1E0,8.24E0,2E0,1.9558054E1,1E0,2.195909E1,5.6E4,1E0,6.9711383E2,2.461E1,1E0,1E0,1E0,-3.3020955E-1,2.1359E4,1E0,-5.485813E-1,-3.037544E-1,1E0,8.18E0,1E0,7.52E2,1E0,-3.7782708E-1,1E0,1E0,8.24E0,8.24E0,-4.20415E-1,-3.3010137E-1,1.0373151E0,4.2144E2,2E0,2.439E1,1E0,1E0,1.7407282E1,6.87E2,5.061576E-2,1.1481386E-1,4.984274E-2,-3.8744667E-1,-3.197814E-2,-4.29349E-1,1.3034484E-1,7.233578E-2,-6.1521244E-1,-4.8258433E-1,-4.708648E-1,-3.7698922E-1,-4.460629E-1,-3.827115E-1,-7.326192E-2,8.8982984E-2,1.8527679E-1,-5.2819455E-1,6.342881E-2,-4.4300112E-1,-1.2427731E-1,-4.6088222E-1,-2.8737256E-2,-6.1691225E-1,-4.30581E-1,-2.5100324E-1,-6.71851E-1,-4.0779155E-1,-4.7140363E-1,-4.0890214E-1,-4.3753776E-1,-3.4370986E-1,-5.6259394E-1,-3.913547E-1,-4.339654E-1,-3.2813284E-1,8.570809E-2,-4.441467E-1,1.6889238E-1,1.04172625E-1,2.3637842E-2,8.898103E-2,1.6932766E-4,-1.028604E-1,-4.5792615E-1,-3.9866224E-1,-4.1094527E-1,-3.2815725E-1,1.2876566E-1,4.0708736E-2,-1.28912395E-2,8.424415E-2],"split_indices":[1,12,1,12,3,51,1,7,69,18,16,3,48,7,1,71,12,72,68,0,69,15,3,69,72,50,3,4,3,69,7,0,70,12,7,71,71,51,0,0,27,0,0,14,3,18,12,19,0,50,71,3,3,0,0,4,9,4,7,72,68,3,12,0,0,0,0,0,0,0,0,0,0,0,0,0,0,0,0,0,0,0,0,0,0,0,0,0,0,0,0,0,0,0,0,0,0,0,0,0,0,0,0,0,0,0,0,0,0,0,0,0,0,0,0],"split_type":[0,0,0,0,0,0,0,0,0,0,0,0,0,0,0,0,0,0,0,0,0,0,0,0,0,0,0,0,0,0,0,0,0,0,0,0,0,0,0,0,0,0,0,0,0,0,0,0,0,0,0,0,0,0,0,0,0,0,0,0,0,0,0,0,0,0,0,0,0,0,0,0,0,0,0,0,0,0,0,0,0,0,0,0,0,0,0,0,0,0,0,0,0,0,0,0,0,0,0,0,0,0,0,0,0,0,0,0,0,0,0,0,0,0,0],"sum_hessian":[1.9106456E5,1.5073772E5,4.032684E4,1.06987414E5,4.3750305E4,1.1977133E4,2.8349707E4,1.054499E5,1.5375183E3,8.3750205E3,3.5375285E4,4.0323938E3,7.9447393E3,2.4301002E4,4.0487056E3,3.3841727E4,7.1608164E4,7.749769E2,7.625414E2,8.332047E3,4.2973625E1,3.4897203E4,4.780812E2,1.1852746E2,3.9138665E3,4.7968516E3,3.1478875E3,1.0598571E4,1.3702431E4,1.1757671E3,2.8729385E3,1.7314533E4,1.6527195E4,6.684996E4,4.758204E3,4.1315256E2,3.618244E2,4.6348996E2,2.9905142E2,1.188092E3,7.1439546E3,3.8338833E1,4.6347904E0,3.4686723E4,2.1048195E2,2.0500978E2,2.730714E2,9.807675E1,2.04507E1,1.9316602E3,1.9822062E3,3.9110352E3,8.858165E2,9.217712E1,3.0557104E3,6.3481514E3,4.25042E3,1.1719369E4,1.9830615E3,6.743272E2,5.0143982E2,2.0567693E3,8.1616925E2,7.2014556E3,1.0113077E4,1.53589E4,1.1682949E3,6.5269605E4,1.5803586E3,2.9337166E3,1.8244873E3,1.0098574E2,3.121668E2,2.2636172E2,1.3546266E2,2.335377E2,2.2995227E2,1.109582E2,1.0771339E3,7.126862E3,1.7092953E1,3.4526184E4,1.6053828E2,2.871027E1,1.8177167E2,1.9214534E2,1.2864442E1,2.3215582E2,4.0915607E1,8.69406E1,1.113616E1,1.3292174E3,6.0244275E2,1.2796434E3,7.0256274E2,6.6826935E1,3.8442083E3,3.157917E1,8.5423737E2,6.2226167E3,1.25535095E2,2.8032556E3,1.4471646E3,7.393103E3,4.326266E3,1.00403613E3,9.7902545E2,3.7549493E2,2.988323E2,2.8122617E2,2.2021367E2,1.599057E3,4.5771216E2,5.975855E2,2.185837E2],"tree_param":{"num_deleted":"0","num_feature":"73","num_nodes":"115","size_leaf_vector":"1"}},{"base_weights":[-1.7423896E-2,6.525328E-2,-1.864422E-1,-5.547018E-3,2.519692E-1,-5.2870214E-2,-1.0928488E0,4.893531E-2,-1.471679E0,4.1111296E-1,1.6146544E-1,2.4620385E-3,-2.8770408E-1,-3.4568265E-1,-3.2450342E-1,-1.825707E-2,3.230581E-1,-1.6693453E0,-1.3030112E0,5.0288844E-1,3.3065626E-1,-1.5169983E0,3.2129344E-1,1.0461679E-1,-1.1197698E-1,-1.2454543E0,4.7724884E-2,9.907408E-2,-1.3966299E0,3.5344136E-1,-4.5661356E-2,-2.4846106E0,-1.6362797E0,-1.489894E0,-1.1480452E0,5.346693E-1,2.920153E-1,3.5311785E-1,4.908163E-2,-1.6970072E0,-1.29411E0,4.081933E-1,1.8465999E-1,1.2005564E-1,-6.174034E-1,-2.1603453E-1,2.3664495E-2,-1.3449298E0,-1.1557777E0,-1.3134761E-1,1.4037208E-1,-1.7513512E-2,6.050092E-2,-4.5905122E-1,-3.90889E-1,9.710661E-2,1.5852708E-1,5.8101058E-2,-5.5913895E-2,-8.155438E-1,-5.3811026E-1,-5.215841E-1,-4.2699277E-1,-4.7572938E-1,-3.3948192E-1,-4.3795308E-1,-3.3769172E-1,1.3379176E-1,1.7688134E-1,1.9624577E-1,6.31997E-2,1.1333521E-1,2.2965088E-2,3.1027384E-2,-3.8547435E-1,-5.5693245E-1,-4.5813116E-1,-4.4860902E-1,-3.482126E-1,9.0305954E-2,1.4819834E-1,9.366707E-2,2.8014941E-2,4.6603605E-2,-5.7316143E-2,-1.07767925E-1,-4.3142238E-1,-5.3453367E-2,-4.0923297E-1,8.813491E-2,-5.0341175E-3,-4.2060778E-1,-3.8756573E-1,-3.6380604E-1,-3.2566988E-1,-1.3200885E-2,-3.9964652E-1,1.2214825E-1,2.4583505E-2],"categories":[],"categories_nodes":[],"categories_segments":[],"categories_sizes":[],"default_left":[0,0,0,0,0,0,0,0,0,0,0,0,0,0,0,0,0,0,0,0,0,0,0,0,0,0,0,0,0,0,0,0,0,0,0,0,0,0,0,0,0,0,0,0,0,0,0,0,0,0,0,0,0,0,0,0,0,0,0,0,0,0,0,0,0,0,0,0,0,0,0,0,0,0,0,0,0,0,0,0,0,0,0,0,0,0,0,0,0,0,0,0,0,0,0,0,0,0,0],"id":9,"left_children":[1,3,5,7,9,11,13,15,17,19,21,23,25,-1,-1,27,29,31,33,35,37,39,41,43,45,47,49,51,53,55,57,59,61,63,65,67,69,71,73,75,77,79,81,83,85,87,89,91,93,95,97,-1,-1,-1,-1,-1,-1,-1,-1,-1,-1,-1,-1,-1,-1,-1,-1,-1,-1,-1,-1,-1,-1,-1,-1,-1,-1,-1,-1,-1,-1,-1,-1,-1,-1,-1,-1,-1,-1,-1,-1,-1,-1,-1,-1,-1,-1,-1,-1],"loss_changes":[2.5744507E3,1.6354635E3,7.3267305E3,7.1653696E3,4.8983765E2,6.853652E2,3.913086E0,1.5930564E3,1.0497998E2,9.087964E1,5.817702E3,4.990563E2,3.231286E3,0E0,0E0,1.1234281E4,1.9076453E2,3.5729004E1,4.864502E1,3.8432617E1,4.1555725E1,7.34541E1,2.3501892E2,2.5149945E2,2.8418665E2,2.1718994E1,1.2362042E2,1.0341191E3,6.6166016E1,8.172534E1,4.372056E1,4.1095886E0,2.850879E1,2.516455E1,5.027954E0,2.4113037E1,2.2143906E1,4.1498474E1,3.5420937E1,2.533374E1,2.0994385E1,1.11134766E2,8.961728E1,2.4248627E2,9.956592E1,4.9494745E2,9.550415E1,1.9162598E0,4.194214E0,2.6642682E2,7.650805E1,0E0,0E0,0E0,0E0,0E0,0E0,0E0,0E0,0E0,0E0,0E0,0E0,0E0,0E0,0E0,0E0,0E0,0E0,0E0,0E0,0E0,0E0,0E0,0E0,0E0,0E0,0E0,0E0,0E0,0E0,0E0,0E0,0E0,0E0,0E0,0E0,0E0,0E0,0E0,0E0,0E0,0E0,0E0,0E0,0E0,0E0,0E0,0E0],"parents":[2147483647,0,0,1,1,2,2,3,3,4,4,5,5,6,6,7,7,8,8,9,9,10,10,11,11,12,12,15,15,16,16,17,17,18,18,19,19,20,20,21,21,22,22,23,23,24,24,25,25,26,26,27,27,28,28,29,29,30,30,31,31,32,32,33,33,34,34,35,35,36,36,37,37,38,38,39,39,40,40,41,41,42,42,43,43,44,44,45,45,46,46,47,47,48,48,49,49,50,50],"right_children":[2,4,6,8,10,12,14,16,18,20,22,24,26,-1,-1,28,30,32,34,36,38,40,42,44,46,48,50,52,54,56,58,60,62,64,66,68,70,72,74,76,78,80,82,84,86,88,90,92,94,96,98,-1,-1,-1,-1,-1,-1,-1,-1,-1,-1,-1,-1,-1,-1,-1,-1,-1,-1,-1,-1,-1,-1,-1,-1,-1,-1,-1,-1,-1,-1,-1,-1,-1,-1,-1,-1,-1,-1,-1,-1,-1,-1,-1,-1,-1,-1,-1,-1],"split_conditions":[1E0,2E0,1E0,1.0373151E0,2.0139475E0,8.249624E-3,1.1597514E1,1E0,1E0,1.717E1,3E0,1.9791914E1,1E0,-3.4568265E-1,-3.2450342E-1,2.2677835E-2,1.899E1,7.97E0,1E0,1.6265226E1,1E0,1E0,2.014E1,1E0,6.97E2,1E0,1E0,4.1E4,1E0,7.22E2,2.6779E2,8.249624E-3,8.249624E-3,1E0,8.24E0,6.82E2,1.6725E2,1.892E1,1E0,1E0,1E0,4E0,3.0895176E0,1E0,1E0,6.9254144E2,6.9711383E2,1E0,1E0,2.2677835E-2,1.068E1,-1.7513512E-2,6.050092E-2,-4.5905122E-1,-3.90889E-1,9.710661E-2,1.5852708E-1,5.8101058E-2,-5.5913895E-2,-8.155438E-1,-5.3811026E-1,-5.215841E-1,-4.2699277E-1,-4.7572938E-1,-3.3948192E-1,-4.3795308E-1,-3.3769172E-1,1.3379176E-1,1.7688134E-1,1.9624577E-1,6.31997E-2,1.1333521E-1,2.2965088E-2,3.1027384E-2,-3.8547435E-1,-5.5693245E-1,-4.5813116E-1,-4.4860902E-1,-3.482126E-1,9.0305954E-2,1.4819834E-1,9.366707E-2,2.8014941E-2,4.6603605E-2,-5.7316143E-2,-1.07767925E-1,-4.3142238E-1,-5.3453367E-2,-4.0923297E-1,8.813491E-2,-5.0341175E-3,-4.2060778E-1,-3.8756573E-1,-3.6380604E-1,-3.2566988E-1,-1.3200885E-2,-3.9964652E-1,1.2214825E-1,2.4583505E-2],"split_indices":[69,4,68,4,4,1,3,4,51,7,4,7,1,0,0,4,3,3,48,3,58,51,7,65,12,51,4,0,48,12,9,1,1,50,3,12,9,3,56,72,48,4,4,50,56,12,12,72,48,4,7,0,0,0,0,0,0,0,0,0,0,0,0,0,0,0,0,0,0,0,0,0,0,0,0,0,0,0,0,0,0,0,0,0,0,0,0,0,0,0,0,0,0,0,0,0,0,0,0],"split_type":[0,0,0,0,0,0,0,0,0,0,0,0,0,0,0,0,0,0,0,0,0,0,0,0,0,0,0,0,0,0,0,0,0,0,0,0,0,0,0,0,0,0,0,0,0,0,0,0,0,0,0,0,0,0,0,0,0,0,0,0,0,0,0,0,0,0,0,0,0,0,0,0,0,0,0,0,0,0,0,0,0,0,0,0,0,0,0,0,0,0,0,0,0,0,0,0,0,0,0],"sum_hessian":[1.8423019E5,1.23714484E5,6.05157E4,8.97017E4,3.4012777E4,5.2744152E4,7.7715474E3,8.64887E4,3.2130044E3,1.2329236E4,2.1683543E4,4.2687082E4,1.0057068E4,1.2135436E3,6.558004E3,6.9463016E4,1.702569E4,1.4752368E3,1.7377676E3,5.7570376E3,6.5721987E3,1.8845105E3,1.9799031E4,2.2554102E4,2.0132982E4,2.607931E3,7.4491377E3,6.4014812E4,5.4482007E3,1.572958E4,1.2961093E3,5.46107E1,1.4206262E3,7.8385504E2,9.5391254E2,5.001694E3,7.553442E2,6.086422E3,4.8577655E2,1.0388787E3,8.456319E2,1.210083E4,7.6982017E3,2.2082742E4,4.7135822E2,1.1392565E4,8.740417E3,1.2297776E3,1.3781533E3,2.5397607E3,4.909377E3,2.5255656E4,3.8759156E4,2.2397102E3,3.2084905E3,1.3446146E4,2.2834329E3,4.797616E2,8.163476E2,3.8607613E1,1.6003084E1,9.547155E2,4.6591064E2,6.156846E2,1.6817052E2,5.9652134E1,8.942604E2,1.9164941E3,3.0851995E3,1.3726263E2,6.1808154E2,5.587707E3,4.987151E2,4.6764844E2,1.8128119E1,5.3083044E2,5.0804816E2,3.3301926E2,5.126126E2,5.3823237E3,6.7185063E3,3.2098577E3,4.4883438E3,1.9833494E4,2.2492488E3,3.596521E2,1.1170612E2,1.1030017E4,3.6254883E2,1.1374547E3,7.602962E3,5.800203E2,6.497572E2,7.5219684E2,6.259564E2,2.3685156E3,1.7124512E2,8.809281E2,4.0284487E3],"tree_param":{"num_deleted":"0","num_feature":"73","num_nodes":"99","size_leaf_vector":"1"}},{"base_weights":[-1.708841E-2,1.5520774E-1,-7.2007515E-2,6.982507E-2,3.6889914E-1,-1.3918107E0,-4.035198E-2,1.8737306E-1,-1.4053218E0,4.087124E-1,1.4236844E-1,-1.4828832E0,-1.2489386E0,3.360313E-1,-8.351525E-2,9.332999E-2,3.4865484E-1,-1.4894831E0,-1.2403431E0,3.2726574E-1,4.802127E-1,7.088443E-2,3.6804894E-1,-1.594503E0,-1.3545814E0,-1.3444935E0,-3.1939358E-1,2.5531214E-1,4.676093E-1,-1.391684E0,-4.27859E-2,2.2029684E-1,-1.4038343E0,3.790561E-1,-1.0118584E-2,-1.5663512E0,-1.2774918E0,-1.3455111E0,-3.2021362E-1,2.0462073E-1,3.6058012E-1,4.388048E-1,6.078769E-1,1.3495284E-1,-1.5599611E-1,-4.0490088E-1,4.2048264E-1,-1.9332767E0,-1.5003475E0,-1.4548666E0,-3.5468096E-1,-1.3891052E0,-3.583045E-1,3.0556732E-1,6.6179425E-2,4.8872682E-1,1.4067772E-1,-1.4914583E0,-1.2466263E0,2.99096E-1,-9.0848766E-2,-2.1799652E-2,8.287335E-2,-4.4366542E-1,-3.68285E-1,1.2308021E-1,3.8975958E-2,-2.6469752E-2,1.2922661E-1,-5.105857E-1,-4.2537847E-1,-3.6242348E-1,-4.436052E-1,-4.1719216E-1,-3.5458136E-1,7.1304895E-2,-4.475743E-1,1.19042315E-1,6.4487025E-2,1.3789678E-1,6.684418E-2,1.8680163E-1,1.2137613E-2,1.4396685E-1,2.6255611E-2,-3.1195566E-1,-3.777951E-2,4.400733E-2,-2.244661E-1,8.945431E-2,1.9384946E-1,-6.6149014E-1,-4.4508657E-1,-5.0199544E-1,-3.8165694E-1,-4.8690376E-1,-3.8073054E-1,-4.5146975E-1,-3.9461273E-1,4.9984153E-2,1.02470465E-1,3.9826334E-2,-6.361011E-2,1.1771687E-1,1.640159E-1,-5.2475734E-3,1.6486622E-1,-4.723979E-1,-3.838168E-1,-4.027864E-1,-3.1944877E-1,9.946774E-2,1.5085077E-2,-4.1117665E-1,-1.3258611E-2],"categories":[],"categories_nodes":[],"categories_segments":[],"categories_sizes":[],"default_left":[0,0,0,0,0,0,0,0,0,0,0,0,0,0,0,0,0,0,0,0,0,0,0,0,0,0,0,0,0,0,0,0,0,0,0,0,0,0,0,0,0,0,0,0,0,0,0,0,0,0,0,0,0,0,0,0,0,0,0,0,0,0,0,0,0,0,0,0,0,0,0,0,0,0,0,0,0,0,0,0,0,0,0,0,0,0,0,0,0,0,0,0,0,0,0,0,0,0,0,0,0,0,0,0,0,0,0,0,0,0,0,0,0,0,0],"id":10,"left_children":[1,3,5,7,9,11,13,15,17,19,21,23,25,27,29,31,33,35,37,39,41,43,45,47,49,51,-1,53,55,57,59,61,63,65,67,69,71,73,-1,75,77,79,81,83,85,87,89,91,93,95,-1,97,-1,99,101,103,105,107,109,111,113,-1,-1,-1,-1,-1,-1,-1,-1,-1,-1,-1,-1,-1,-1,-1,-1,-1,-1,-1,-1,-1,-1,-1,-1,-1,-1,-1,-1,-1,-1,-1,-1,-1,-1,-1,-1,-1,-1,-1,-1,-1,-1,-1,-1,-1,-1,-1,-1,-1,-1,-1,-1,-1,-1],"loss_changes":[1.6647466E3,7.7584985E2,5.5736665E3,5.2690645E3,1.09431274E2,3.8807617E1,2.116639E3,4.2683173E2,2.9291504E1,5.996875E1,2.9274258E1,2.509375E1,2.010254E1,1.4224341E2,6.227541E3,3.3798916E3,1.130636E2,2.211792E1,1.2453369E1,1.9660034E1,2.8786621E1,2.0088764E1,1.7867523E1,2.9380615E1,1.3694092E1,3.7093506E0,0E0,7.8963684E1,3.510901E1,4.921826E1,1.8626453E3,2.686585E2,1.6567383E1,7.42522E1,2.7957525E1,1.935962E1,3.789856E0,1.833313E0,0E0,5.8353104E1,1.9945007E1,1.8603516E1,1.1252991E1,1.758116E1,7.959639E0,5.4593296E0,1.11076355E1,2.3194397E1,2.930066E1,1.5416748E1,0E0,3.2432861E0,0E0,3.2784424E1,3.236342E1,2.6522705E1,2.0093737E1,3.479004E1,2.3775879E1,1.1283667E2,5.933556E3,0E0,0E0,0E0,0E0,0E0,0E0,0E0,0E0,0E0,0E0,0E0,0E0,0E0,0E0,0E0,0E0,0E0,0E0,0E0,0E0,0E0,0E0,0E0,0E0,0E0,0E0,0E0,0E0,0E0,0E0,0E0,0E0,0E0,0E0,0E0,0E0,0E0,0E0,0E0,0E0,0E0,0E0,0E0,0E0,0E0,0E0,0E0,0E0,0E0,0E0,0E0,0E0,0E0,0E0],"parents":[2147483647,0,0,1,1,2,2,3,3,4,4,5,5,6,6,7,7,8,8,9,9,10,10,11,11,12,12,13,13,14,14,15,15,16,16,17,17,18,18,19,19,20,20,21,21,22,22,23,23,24,24,25,25,27,27,28,28,29,29,30,30,31,31,32,32,33,33,34,34,35,35,36,36,37,37,39,39,40,40,41,41,42,42,43,43,44,44,45,45,46,46,47,47,48,48,49,49,51,51,53,53,54,54,55,55,56,56,57,57,58,58,59,59,60,60],"right_children":[2,4,6,8,10,12,14,16,18,20,22,24,26,28,30,32,34,36,38,40,42,44,46,48,50,52,-1,54,56,58,60,62,64,66,68,70,72,74,-1,76,78,80,82,84,86,88,90,92,94,96,-1,98,-1,100,102,104,106,108,110,112,114,-1,-1,-1,-1,-1,-1,-1,-1,-1,-1,-1,-1,-1,-1,-1,-1,-1,-1,-1,-1,-1,-1,-1,-1,-1,-1,-1,-1,-1,-1,-1,-1,-1,-1,-1,-1,-1,-1,-1,-1,-1,-1,-1,-1,-1,-1,-1,-1,-1,-1,-1,-1,-1,-1],"split_conditions":[7.02466E0,7E0,8E0,6.099603E0,1.899E1,1E0,8.050781E0,6E0,1E0,5.005322E4,1.2797E4,1E0,1E0,6.4E4,9E0,5.163299E0,2.118E1,8.249624E-3,1E0,6.72E2,7.12E2,2.4196898E1,3.4E4,1E0,1E0,8.249624E-3,-3.1939358E-1,1.7953733E1,2.199E1,1E0,9.088979E0,2.6933967E4,1E0,1E0,1.5186E4,1E0,1E0,8.249624E-3,-3.2021362E-1,6.673356E2,1.32E4,1E0,1E0,7.71E0,3.3E0,1E0,7.5E4,1E0,1E0,1E0,-3.5468096E-1,1E0,-3.583045E-1,6.72E2,2.399E1,6.82E2,1.5966E4,8.249624E-3,1E0,1.972155E1,1E1,-2.1799652E-2,8.287335E-2,-4.4366542E-1,-3.68285E-1,1.2308021E-1,3.8975958E-2,-2.6469752E-2,1.2922661E-1,-5.105857E-1,-4.2537847E-1,-3.6242348E-1,-4.436052E-1,-4.1719216E-1,-3.5458136E-1,7.1304895E-2,-4.475743E-1,1.19042315E-1,6.4487025E-2,1.3789678E-1,6.684418E-2,1.8680163E-1,1.2137613E-2,1.4396685E-1,2.6255611E-2,-3.1195566E-1,-3.777951E-2,4.400733E-2,-2.244661E-1,8.945431E-2,1.9384946E-1,-6.6149014E-1,-4.4508657E-1,-5.0199544E-1,-3.8165694E-1,-4.8690376E-1,-3.8073054E-1,-4.5146975E-1,-3.9461273E-1,4.9984153E-2,1.02470465E-1,3.9826334E-2,-6.361011E-2,1.1771687E-1,1.640159E-1,-5.2475734E-3,1.6486622E-1,-4.723979E-1,-3.838168E-1,-4.027864E-1,-3.1944877E-1,9.946774E-2,1.5085077E-2,-4.1117665E-1,-1.3258611E-2],"split_indices":[8,8,8,8,3,69,8,8,69,0,10,72,68,0,8,8,3,1,68,12,12,3,0,71,71,1,0,3,3,69,8,0,69,50,10,72,1,1,0,12,6,50,29,7,11,51,0,48,70,70,0,51,0,12,3,12,10,1,68,3,8,0,0,0,0,0,0,0,0,0,0,0,0,0,0,0,0,0,0,0,0,0,0,0,0,0,0,0,0,0,0,0,0,0,0,0,0,0,0,0,0,0,0,0,0,0,0,0,0,0,0,0,0,0,0],"split_type":[0,0,0,0,0,0,0,0,0,0,0,0,0,0,0,0,0,0,0,0,0,0,0,0,0,0,0,0,0,0,0,0,0,0,0,0,0,0,0,0,0,0,0,0,0,0,0,0,0,0,0,0,0,0,0,0,0,0,0,0,0,0,0,0,0,0,0,0,0,0,0,0,0,0,0,0,0,0,0,0,0,0,0,0,0,0,0,0,0,0,0,0,0,0,0,0,0,0,0,0,0,0,0,0,0,0,0,0,0,0,0,0,0,0,0],"sum_hessian":[1.7593156E5,4.252313E4,1.3340844E5,3.0384146E4,1.2138982E4,3.1238508E3,1.3028458E5,2.8142469E4,2.241677E3,1.0323757E4,1.8152256E3,1.9020353E3,1.2218154E3,1.340308E4,1.168815E5,1.7777832E4,1.0364638E4,1.479106E3,7.6257104E2,4.8288022E3,5.4949546E3,1.3795645E3,4.3566113E2,1.01103204E3,8.9100323E2,8.004777E2,4.2133774E2,8.308814E3,5.094266E3,3.5281807E3,1.1335332E5,1.638883E4,1.3890001E3,9.554929E3,8.0970917E2,1.0808141E3,3.9829184E2,4.7001044E2,2.9256064E2,1.0330032E3,3.7957988E3,4.1525215E3,1.3424329E3,1.0760934E3,3.03471E2,2.724897E1,4.0841217E2,2.1563599E2,7.9539606E2,5.5850854E2,3.324947E2,6.10756E2,1.8972174E2,6.5640425E3,1.7447721E3,4.7847114E3,3.095545E2,2.0848728E3,1.443308E3,1.3970784E4,9.938254E4,2.627898E3,1.3760933E4,9.689401E2,4.2006E2,8.490598E3,1.0643308E3,6.8851764E2,1.211915E2,5.5933307E2,5.21481E2,3.0133313E2,9.695873E1,3.624968E2,1.0751363E2,1.0141002E3,1.8902977E1,3.0382346E3,7.575642E2,3.7859138E3,3.6660782E2,1.3082241E3,3.42088E1,1.2898796E2,9.4710547E2,8.878114E0,2.945929E2,1.067338E1,1.657559E1,2.6637796E2,1.420342E2,1.3198457E2,8.365141E1,4.4881046E2,3.465856E2,2.8909558E2,2.6941296E2,2.3004832E2,3.8070764E2,1.3518607E3,5.2121816E3,1.4082965E3,3.3647556E2,1.800876E3,2.9838354E3,2.2389877E2,8.565574E1,1.492782E3,5.920907E2,9.4037384E2,5.0293414E2,1.2358067E4,1.6127169E3,3.494596E3,9.588794E4],"tree_param":{"num_deleted":"0","num_feature":"73","num_nodes":"115","size_leaf_vector":"1"}},{"base_weights":[-1.5175715E-2,-8.381393E-2,1.0472624E-1,-5.590088E-2,-1.3566025E0,4.537818E-1,7.437694E-2,-9.29069E-2,3.110355E-1,-1.4718487E0,-1.2115786E0,4.721482E-1,-1.2040148E0,3.4955797E-1,2.9170318E-2,-5.582545E-2,-1.3480647E0,3.4185943E-1,1.0973832E-1,-1.5836186E0,-1.3399377E0,-1.2935839E0,-3.1739962E-1,3.7179005E-1,6.170234E-1,-2.857887E-1,-2.0181441E0,3.818569E-1,1.4199758E-1,-1.3162512E0,8.328493E-2,-9.9635236E-2,2.960289E-1,-1.443522E0,-1.2308683E0,3.7912458E-1,1.8504895E-1,-3.4747368E-1,1.8652566E-1,-1.8855159E0,-1.4816189E0,-1.4265635E0,-3.5582417E-1,-4.1334242E-1,-1.2124184E0,3.813465E-1,-1.3471475E0,2.708288E-1,6.6679883E-1,-1.6134871E0,2.0204784E-2,-2.0787632E0,-1.8816479E-1,3.2695433E-1,4.495306E-1,-1.9859865E-1,1.9415514E-1,-1.4112158E0,-1.2046394E0,1.6032849E-1,-3.1663254E-2,-1.4798312E-2,-4.0449634E-1,1.0068381E-1,4.9172115E-2,-4.5107216E-1,-3.748653E-1,-3.9422637E-1,-3.1674945E-1,1.191641E-1,1.2378536E-2,8.065361E-2,6.8020714E-3,7.4887425E-2,-7.5044483E-4,-6.3417244E-1,-4.892936E-1,-5.018146E-1,-3.7194127E-1,-4.8080412E-1,-3.7035525E-1,-3.9210987E-1,-3.2348365E-1,1.1919993E-1,-1.8892737E-1,-4.267697E-1,-5.954498E-2,1.0301899E-1,-1.11566335E-1,2.0366581E-1,-1.4039098E-1,-5.7734615E-1,-8.8439316E-2,9.3729116E-2,-4.8995408E-1,-7.3225445E-1,-4.9527588E-1,1.1106578E-1,4.833929E-2,1.4563698E-1,8.6974576E-2,1.3561372E-1,-9.644224E-2,8.602238E-2,-1.5239163E-2,-4.5171043E-1,-3.8888317E-1,-3.817382E-1,-3.1401777E-1,-1.0097164E-2,6.0056075E-2,2.4037436E-2,-3.830737E-1],"categories":[],"categories_nodes":[],"categories_segments":[],"categories_sizes":[],"default_left":[0,0,0,0,0,0,0,0,0,0,0,0,0,0,0,0,0,0,0,0,0,0,0,0,0,0,0,0,0,0,0,0,0,0,0,0,0,0,0,0,0,0,0,0,0,0,0,0,0,0,0,0,0,0,0,0,0,0,0,0,0,0,0,0,0,0,0,0,0,0,0,0,0,0,0,0,0,0,0,0,0,0,0,0,0,0,0,0,0,0,0,0,0,0,0,0,0,0,0,0,0,0,0,0,0,0,0,0,0,0,0,0,0],"id":11,"left_children":[1,3,5,7,9,11,13,15,17,19,21,23,25,27,29,31,33,35,37,39,41,43,-1,45,47,49,51,53,55,57,59,61,63,65,67,69,71,-1,73,75,77,79,-1,-1,81,83,85,87,89,91,93,95,-1,97,99,101,103,105,107,109,111,-1,-1,-1,-1,-1,-1,-1,-1,-1,-1,-1,-1,-1,-1,-1,-1,-1,-1,-1,-1,-1,-1,-1,-1,-1,-1,-1,-1,-1,-1,-1,-1,-1,-1,-1,-1,-1,-1,-1,-1,-1,-1,-1,-1,-1,-1,-1,-1,-1,-1,-1,-1],"loss_changes":[1.405658E3,3.8589067E3,6.5867444E2,1.4433245E3,3.7175293E1,1.520061E2,7.116476E2,4.493809E3,6.0382507E1,1.6958984E1,1.1701538E1,7.13031E1,4.037458E1,5.4059204E1,3.5775789E3,1.4456731E3,2.9219238E1,4.927356E1,1.2626123E2,1.8609497E1,6.305908E0,2.923706E0,0E0,4.830002E1,3.448816E1,1.0964961E1,1.1304855E0,2.5802979E1,1.9375881E1,1.8437988E1,4.1834015E2,5.238994E3,5.425421E1,1.58396E1,1.6827515E1,4.167572E1,2.2081799E1,0E0,1.4570026E1,6.543335E0,2.2149536E1,1.0840149E1,0E0,0E0,3.039917E0,4.7024597E1,1.1300564E0,1.2001818E1,2.4434692E1,1.5047712E0,1.1553764E1,1.8921661E-1,0E0,2.763089E1,1.7782715E1,1.17418375E1,2.1434528E1,9.133057E0,8.095581E0,2.1868103E2,2.6389258E3,0E0,0E0,0E0,0E0,0E0,0E0,0E0,0E0,0E0,0E0,0E0,0E0,0E0,0E0,0E0,0E0,0E0,0E0,0E0,0E0,0E0,0E0,0E0,0E0,0E0,0E0,0E0,0E0,0E0,0E0,0E0,0E0,0E0,0E0,0E0,0E0,0E0,0E0,0E0,0E0,0E0,0E0,0E0,0E0,0E0,0E0,0E0,0E0,0E0,0E0,0E0,0E0],"parents":[2147483647,0,0,1,1,2,2,3,3,4,4,5,5,6,6,7,7,8,8,9,9,10,10,11,11,12,12,13,13,14,14,15,15,16,16,17,17,18,18,19,19,20,20,21,21,23,23,24,24,25,25,26,26,27,27,28,28,29,29,30,30,31,31,32,32,33,33,34,34,35,35,36,36,38,38,39,39,40,40,41,41,44,44,45,45,46,46,47,47,48,48,49,49,50,50,51,51,53,53,54,54,55,55,56,56,57,57,58,58,59,59,60,60],"right_children":[2,4,6,8,10,12,14,16,18,20,22,24,26,28,30,32,34,36,38,40,42,44,-1,46,48,50,52,54,56,58,60,62,64,66,68,70,72,-1,74,76,78,80,-1,-1,82,84,86,88,90,92,94,96,-1,98,100,102,104,106,108,110,112,-1,-1,-1,-1,-1,-1,-1,-1,-1,-1,-1,-1,-1,-1,-1,-1,-1,-1,-1,-1,-1,-1,-1,-1,-1,-1,-1,-1,-1,-1,-1,-1,-1,-1,-1,-1,-1,-1,-1,-1,-1,-1,-1,-1,-1,-1,-1,-1,-1,-1,-1,-1],"split_conditions":[6.97E2,6.9254144E2,7.35E0,6.92E2,1E0,1E0,6.9711383E2,6.875691E2,8.249624E-3,1E0,1E0,7.52E2,1.1010984E-1,1.903E1,7.02E2,6.87E2,1E0,2.682E1,1E0,1E0,1E0,1E0,-3.1739962E-1,1E0,4E4,6.89E0,1E0,6.0102875E4,3.322E3,1E0,1E0,6.82377E2,1.7825268E1,8.249624E-3,1E0,1E0,1E0,-3.4747368E-1,1.675E4,1E0,1E0,1E0,-3.5582417E-1,-4.1334242E-1,1E0,1E0,6.8945015E1,1.2314E4,1E0,1.1461038E1,6.97E0,1E0,-1.8816479E-1,1E0,2.45E1,3.6E3,2.723E1,1E0,1E0,3.7E4,1E0,-1.4798312E-2,-4.0449634E-1,1.0068381E-1,4.9172115E-2,-4.5107216E-1,-3.748653E-1,-3.9422637E-1,-3.1674945E-1,1.191641E-1,1.2378536E-2,8.065361E-2,6.8020714E-3,7.4887425E-2,-7.5044483E-4,-6.3417244E-1,-4.892936E-1,-5.018146E-1,-3.7194127E-1,-4.8080412E-1,-3.7035525E-1,-3.9210987E-1,-3.2348365E-1,1.1919993E-1,-1.8892737E-1,-4.267697E-1,-5.954498E-2,1.0301899E-1,-1.11566335E-1,2.0366581E-1,-1.4039098E-1,-5.7734615E-1,-8.8439316E-2,9.3729116E-2,-4.8995408E-1,-7.3225445E-1,-4.9527588E-1,1.1106578E-1,4.833929E-2,1.4563698E-1,8.6974576E-2,1.3561372E-1,-9.644224E-2,8.602238E-2,-1.5239163E-2,-4.5171043E-1,-3.8888317E-1,-3.817382E-1,-3.1401777E-1,-1.0097164E-2,6.0056075E-2,2.4037436E-2,-3.830737E-1],"split_indices":[12,12,3,12,69,17,12,12,1,72,68,12,4,3,12,12,69,7,1,71,71,51,0,18,0,3,69,0,10,69,71,12,3,1,68,58,69,0,5,48,70,70,0,0,48,69,11,10,65,8,3,51,0,69,7,5,7,72,68,0,70,0,0,0,0,0,0,0,0,0,0,0,0,0,0,0,0,0,0,0,0,0,0,0,0,0,0,0,0,0,0,0,0,0,0,0,0,0,0,0,0,0,0,0,0,0,0,0,0,0,0,0,0],"split_type":[0,0,0,0,0,0,0,0,0,0,0,0,0,0,0,0,0,0,0,0,0,0,0,0,0,0,0,0,0,0,0,0,0,0,0,0,0,0,0,0,0,0,0,0,0,0,0,0,0,0,0,0,0,0,0,0,0,0,0,0,0,0,0,0,0,0,0,0,0,0,0,0,0,0,0,0,0,0,0,0,0,0,0,0,0,0,0,0,0,0,0,0,0,0,0,0,0,0,0,0,0,0,0,0,0,0,0,0,0,0,0,0,0],"sum_hessian":[1.7079775E5,1.0861887E5,6.217888E4,1.0628893E5,2.3299387E3,4.972687E3,5.720619E4,9.655225E4,9.736676E3,1.293157E3,1.0367816E3,4.9189067E3,5.3780384E1,8.070831E3,4.913536E4,9.378265E4,2.7696008E3,8.443113E3,1.2935624E3,6.940634E2,5.9909357E2,6.710474E2,3.657342E2,2.9080232E3,2.0108835E3,2.5909296E1,2.7871088E1,6.983304E3,1.087527E3,1.8989713E3,4.7236387E4,8.3399234E4,1.0383417E4,1.5201274E3,1.2494733E3,6.8207754E3,1.6223375E3,7.305908E1,1.2205033E3,1.7086227E2,5.232012E2,3.7799805E2,2.2109552E2,3.2147882E2,3.495686E2,2.8927192E3,1.5303921E1,2.5358778E2,1.7572958E3,4.052528E0,2.1856768E1,2.623328E1,1.6378069E0,3.8586653E3,3.124639E3,1.4405035E2,9.434766E2,1.0197093E3,8.792621E2,2.828086E4,1.895553E4,8.017034E4,3.2288938E3,7.9885146E3,2.3949023E3,1.1556089E3,3.6451855E2,8.424373E2,4.0703598E2,6.4739844E3,3.467911E2,1.0696644E3,5.526731E2,9.148103E2,3.05693E2,8.6206085E1,8.465619E1,2.8894363E2,2.3425754E2,1.9334491E2,1.8465314E2,1.9985712E2,1.497115E2,2.848292E3,4.4427383E1,1.4137256E1,1.1666651E0,2.2827898E2,2.5308807E1,1.7391725E3,1.812335E1,2.9074423E0,1.1450856E0,1.9263159E1,2.5936086E0,1.1660219E1,1.4573062E1,3.0592458E3,7.994194E2,2.5488958E3,5.757429E2,2.245719E1,1.2159316E2,6.845591E2,2.589175E2,5.530076E2,4.667017E2,6.101535E2,2.6910855E2,4.82046E3,2.34604E4,1.7394896E4,1.5606327E3],"tree_param":{"num_deleted":"0","num_feature":"73","num_nodes":"113","size_leaf_vector":"1"}},{"base_weights":[-1.3454184E-2,-4.1703157E-2,2.3060283E-1,-2.6959917E-2,-1.3502538E0,1.8022658E-1,4.1144246E-1,3.0953646E-2,-1.5342185E-1,-1.5079389E0,-1.2046297E0,2.1387137E-1,-1.4802281E0,2.5604737E-1,4.6735206E-1,8.822228E-2,-8.7577134E-2,-5.848716E-2,-1.0592967E0,-1.664759E0,-1.2535945E0,-1.2668552E0,-3.181451E-1,3.1516492E-1,6.815622E-2,-1.5881995E0,-3.6096162E-1,5.1320696E-1,1.9693115E-1,5.3449196E-1,3.856649E-1,1.1174791E-1,-1.9923218E-1,2.4500838E-2,-1.2144351E0,-9.11605E-2,2.0616478E-1,-3.2982028E-1,-3.1554934E-1,-2.025378E0,-1.5934213E0,-1.4230194E0,-3.450818E-1,-1.3185319E0,-3.358386E-1,3.4985292E-1,1.9289352E-1,-1.4350978E0,3.399046E-1,-1.6524895E0,-4.0584728E-1,8.2963043E-1,4.5704228E-1,-7.1536547E-1,2.1732192E-1,5.8373475E-1,3.705906E-1,2.9325938E-1,5.339857E-1,4.236884E-2,-3.216162E-2,9.608403E-2,-7.35234E-2,4.1196242E-2,-3.70264E-1,-4.3869284E-1,-3.5828534E-1,-1.6973693E-2,-3.7481236E-1,-5.1237915E-2,6.8974346E-2,-6.260553E-1,-3.7407762E-1,-5.157714E-1,-4.4477245E-1,-4.4881326E-1,-3.456235E-1,-3.836011E-1,-4.3185684E-1,8.122042E-2,1.19276114E-1,6.3934654E-2,-3.5769325E-2,-4.6072277E-1,-3.6302704E-1,5.2966908E-2,1.2404313E-1,-5.449399E-1,-4.5224625E-1,3.947956E-2,3.2632282E-1,1.2164174E-1,2.951958E-1,-5.1342183E-1,-4.1532706E-2,8.806655E-2,-8.438479E-5,1.8826288E-1,1.2510917E-1,1.4576763E-1,2.9310618E-2,9.0202644E-2,-3.1925774E-1,1.649627E-1,-1.7006849E-1],"categories":[],"categories_nodes":[],"categories_segments":[],"categories_sizes":[],"default_left":[0,0,0,0,0,0,0,0,0,0,0,0,0,0,0,0,0,0,0,0,0,0,0,0,0,0,0,0,0,0,0,0,0,0,0,0,0,0,0,0,0,0,0,0,0,0,0,0,0,0,0,0,0,0,0,0,0,0,0,0,0,0,0,0,0,0,0,0,0,0,0,0,0,0,0,0,0,0,0,0,0,0,0,0,0,0,0,0,0,0,0,0,0,0,0,0,0,0,0,0,0,0,0,0,0],"id":12,"left_children":[1,3,5,7,9,11,13,15,17,19,21,23,25,27,29,31,33,35,37,39,41,43,-1,45,47,49,-1,51,53,55,57,59,61,63,65,67,69,-1,-1,71,73,75,-1,77,-1,79,81,83,85,87,-1,89,91,93,95,97,99,101,103,-1,-1,-1,-1,-1,-1,-1,-1,-1,-1,-1,-1,-1,-1,-1,-1,-1,-1,-1,-1,-1,-1,-1,-1,-1,-1,-1,-1,-1,-1,-1,-1,-1,-1,-1,-1,-1,-1,-1,-1,-1,-1,-1,-1,-1,-1],"loss_changes":[1.1460242E3,2.8741587E3,1.5702173E2,1.0789763E3,3.6297607E1,7.538868E2,3.2515503E1,6.859351E2,3.9795593E3,2.954065E1,6.44104E0,1.9513464E2,6.10553E0,1.50420685E1,1.4937744E1,4.6076367E2,4.157466E3,3.6221588E2,1.5771484E-1,9.31311E0,3.7281494E0,3.1021729E0,0E0,3.3013306E1,2.2159614E3,6.354675E-1,0E0,2.9186249E0,1.5252148E1,1.1994751E1,1.696524E1,4.0654248E2,1.2284546E2,4.252076E3,1.312793E1,1.4932756E3,4.12507E1,0E0,0E0,1.0737305E0,3.1920166E0,4.901123E-1,0E0,2.7850342E-1,0E0,2.2834229E1,1.0919167E1,1.694873E1,5.513568E1,6.976929E-1,0E0,4.6756115E0,3.9439697E0,1.0092367E1,1.3180866E1,8.222107E0,1.1036831E1,8.091026E0,8.678986E0,0E0,0E0,0E0,0E0,0E0,0E0,0E0,0E0,0E0,0E0,0E0,0E0,0E0,0E0,0E0,0E0,0E0,0E0,0E0,0E0,0E0,0E0,0E0,0E0,0E0,0E0,0E0,0E0,0E0,0E0,0E0,0E0,0E0,0E0,0E0,0E0,0E0,0E0,0E0,0E0,0E0,0E0,0E0,0E0,0E0,0E0],"parents":[2147483647,0,0,1,1,2,2,3,3,4,4,5,5,6,6,7,7,8,8,9,9,10,10,11,11,12,12,13,13,14,14,15,15,16,16,17,17,18,18,19,19,20,20,21,21,23,23,24,24,25,25,27,27,28,28,29,29,30,30,31,31,32,32,33,33,34,34,35,35,36,36,39,39,40,40,41,41,43,43,45,45,46,46,47,47,48,48,49,49,51,51,52,52,53,53,54,54,55,55,56,56,57,57,58,58],"right_children":[2,4,6,8,10,12,14,16,18,20,22,24,26,28,30,32,34,36,38,40,42,44,-1,46,48,50,-1,52,54,56,58,60,62,64,66,68,70,-1,-1,72,74,76,-1,78,-1,80,82,84,86,88,-1,90,92,94,96,98,100,102,104,-1,-1,-1,-1,-1,-1,-1,-1,-1,-1,-1,-1,-1,-1,-1,-1,-1,-1,-1,-1,-1,-1,-1,-1,-1,-1,-1,-1,-1,-1,-1,-1,-1,-1,-1,-1,-1,-1,-1,-1,-1,-1,-1,-1,-1,-1],"split_conditions":[4E0,3.0895176E0,6E0,1E0,1E0,5.3421006E0,6.1E4,1E0,1E0,1E0,1E0,4.1730576E0,1E0,2.1243E2,1.9991625E4,1.9558054E1,1E0,3E0,1.1597514E1,9.373242E0,1E0,1E0,-3.181451E-1,2.507E1,5E0,8.249624E-3,-3.6096162E-1,9.035E1,2.8E4,2.2532629E1,7.07E2,1E0,1.095E2,1E0,8.39E0,2.0139475E0,4.012863E4,-3.2982028E-1,-3.1554934E-1,1E0,1E0,1E0,-3.450818E-1,7.12E2,-3.358386E-1,6.612762E4,2.299E1,1E0,6.1E4,1E0,-4.0584728E-1,1.144E1,1.616568E1,1.759E1,1.7407282E1,1.4017261E1,1E0,7.026781E2,1E0,4.236884E-2,-3.216162E-2,9.608403E-2,-7.35234E-2,4.1196242E-2,-3.70264E-1,-4.3869284E-1,-3.5828534E-1,-1.6973693E-2,-3.7481236E-1,-5.1237915E-2,6.8974346E-2,-6.260553E-1,-3.7407762E-1,-5.157714E-1,-4.4477245E-1,-4.4881326E-1,-3.456235E-1,-3.836011E-1,-4.3185684E-1,8.122042E-2,1.19276114E-1,6.3934654E-2,-3.5769325E-2,-4.6072277E-1,-3.6302704E-1,5.2966908E-2,1.2404313E-1,-5.449399E-1,-4.5224625E-1,3.947956E-2,3.2632282E-1,1.2164174E-1,2.951958E-1,-5.1342183E-1,-4.1532706E-2,8.806655E-2,-8.438479E-5,1.8826288E-1,1.2510917E-1,1.4576763E-1,2.9310618E-2,9.0202644E-2,-3.1925774E-1,1.649627E-1,-1.7006849E-1],"split_indices":[4,4,4,69,69,4,0,70,68,51,68,4,51,9,5,3,71,4,3,3,48,51,0,7,4,1,0,9,0,7,12,50,9,72,3,4,0,0,0,21,71,50,0,12,0,0,3,51,0,71,0,3,8,7,3,8,70,12,35,0,0,0,0,0,0,0,0,0,0,0,0,0,0,0,0,0,0,0,0,0,0,0,0,0,0,0,0,0,0,0,0,0,0,0,0,0,0,0,0,0,0,0,0,0,0],"split_type":[0,0,0,0,0,0,0,0,0,0,0,0,0,0,0,0,0,0,0,0,0,0,0,0,0,0,0,0,0,0,0,0,0,0,0,0,0,0,0,0,0,0,0,0,0,0,0,0,0,0,0,0,0,0,0,0,0,0,0,0,0,0,0,0,0,0,0,0,0,0,0,0,0,0,0,0,0,0,0,0,0,0,0,0,0,0,0,0,0,0,0,0,0,0,0,0,0,0,0,0,0,0,0,0,0],"sum_hessian":[1.6622392E5,1.4898062E5,1.7243295E4,1.473218E5,1.6588317E3,1.3487968E4,3.7553284E3,1.0104756E5,4.627423E4,7.9194324E2,8.668885E2,1.322095E4,2.67017E2,9.9510754E2,2.760221E3,6.813035E4,3.2917207E4,4.188572E4,4.388512E3,4.8646188E2,3.0548132E2,6.000621E2,2.6682642E2,7.7986055E3,5.4223447E3,1.8872652E2,7.82905E1,1.8456332E2,8.105442E2,1.5119681E3,1.2482527E3,6.297686E4,5.153493E3,2.9940305E4,2.9769026E3,3.728344E4,4.602275E3,6.657778E2,3.7227346E3,7.581556E1,4.1064633E2,1.108839E2,1.9459743E2,4.3840878E2,1.6165329E2,6.073666E3,1.7249397E3,8.294919E2,4.592853E3,1.4350822E2,4.521829E1,2.5745516E1,1.5881781E2,1.6975286E1,7.935689E2,1.1606879E3,3.512803E2,7.709309E2,4.7732175E2,5.550376E4,7.473097E3,4.1741977E2,4.736073E3,2.7478285E4,2.462019E3,2.1842786E2,2.7584746E3,3.620354E4,1.0799031E3,2.7240717E2,4.3298677E3,6.8708984E1,7.106578E0,1.8553938E2,2.2510695E2,8.3781296E1,2.7102604E1,3.3846613E2,9.9942665E1,2.288012E3,3.7856538E3,1.6202817E3,1.04658005E2,5.691077E2,2.6038412E2,1.427303E3,3.1655498E3,6.1938015E1,8.1570206E1,7.3576183E0,1.8387897E1,1.4627223E2,1.2545586E1,5.504864E0,1.1470422E1,5.874261E2,2.0614284E2,9.169566E2,2.4373123E2,2.4639317E2,1.04887146E2,7.675163E2,3.4146452E0,4.710236E2,6.2981677E0],"tree_param":{"num_deleted":"0","num_feature":"73","num_nodes":"105","size_leaf_vector":"1"}},{"base_weights":[-1.2912755E-2,2.5255136E-2,-1.7479916E-1,3.4708034E-2,-5.6015134E-1,-1.1521329E0,5.165393E-2,1.0840933E-1,-3.4464754E-2,-3.2989654E-1,-1.3725926E0,-1.2185926E0,-1.1159496E0,8.363941E-2,-1.6428359E-1,1.3299555E-1,-1.6953757E-1,1.5578967E-2,-1.6839784E-1,-2.4123412E-1,-1.4535036E0,-1.4828763E0,-1.2188838E0,-1.268612E0,-1.1634636E0,-1.1506983E0,-1.0517737E0,1.3309115E-1,-4.8458613E-2,-3.6332414E-1,9.079688E-2,1.5884888E-1,-8.739802E-2,-8.749967E-3,-1.2766641E0,5.493337E-2,-1.3248305E-1,-6.926592E-2,-1.174065E0,-1.9115087E-1,-4.3792292E-1,-4.947748E-1,-3.833169E-1,-1.6133977E0,-1.3470796E0,-3.8925105E-1,-3.121967E-1,-4.5258802E-1,-1.2507724E0,-3.600171E-1,-3.0812156E-1,-1.1689867E0,-3.151971E-1,-3.5618123E-1,-3.1334376E-1,-2.2695122E-2,1.8015504E-1,7.573116E-2,-1.166168E-1,1.5146002E-1,-1.1146389E-1,1.4375697E-1,4.250569E-2,1.703479E-2,-3.9525545E-1,2.3050377E-2,-4.6079484E-1,-4.2405683E-1,-3.6233044E-1,3.2510176E-2,-2.6958954E-2,2.194366E-2,-3.7157694E-1,1.2468826E-2,-3.4857234E-1,-3.701259E-1,-3.4337062E-1,-4.4313468E-2,-4.1245285E-1,-5.664954E-1,-4.578567E-1,-4.5169753E-1,-3.4462747E-1,-3.975913E-1,-3.6792135E-1,-4.36958E-1,-3.4854156E-1,3.737349E-2,-4.2895973E-1,9.213977E-2,3.806488E-2,5.5193376E-2,-3.7541662E-3,-3.9265174E-3,-5.6946915E-2,9.7217E-2,2.0917362E-2,-9.9615484E-2,3.712767E-2],"categories":[],"categories_nodes":[],"categories_segments":[],"categories_sizes":[],"default_left":[0,0,0,0,0,0,0,0,0,0,0,0,0,0,0,0,0,0,0,0,0,0,0,0,0,0,0,0,0,0,0,0,0,0,0,0,0,0,0,0,0,0,0,0,0,0,0,0,0,0,0,0,0,0,0,0,0,0,0,0,0,0,0,0,0,0,0,0,0,0,0,0,0,0,0,0,0,0,0,0,0,0,0,0,0,0,0,0,0,0,0,0,0,0,0,0,0,0,0],"id":13,"left_children":[1,3,5,7,9,11,13,15,17,19,21,23,25,27,29,31,33,35,37,39,41,43,45,47,49,51,53,55,57,-1,59,61,63,65,67,69,71,73,75,77,-1,-1,-1,79,81,-1,-1,-1,83,-1,-1,85,-1,-1,-1,87,89,91,93,95,97,-1,-1,-1,-1,-1,-1,-1,-1,-1,-1,-1,-1,-1,-1,-1,-1,-1,-1,-1,-1,-1,-1,-1,-1,-1,-1,-1,-1,-1,-1,-1,-1,-1,-1,-1,-1,-1,-1],"loss_changes":[9.943614E2,7.206649E2,6.7953335E3,6.53369E2,3.8668243E2,1.2529785E1,1.7219147E2,4.2403882E2,4.431108E2,1.604193E2,5.934021E0,4.1086426E0,7.15625E0,1.418463E2,8.589596E2,3.2483044E2,8.9769745E2,2.8044882E2,1.7927057E3,9.107659E1,1.9470673E0,2.4577026E0,1.4016724E0,2.6121826E0,3.6358643E0,3.2050781E0,7.397461E-2,1.1584061E2,5.0077255E1,0E0,3.1760954E1,2.804535E2,1.0616962E3,5.758136E2,4.322754E0,2.9419733E2,2.2988005E3,1.9824421E3,1.4287109E0,7.3789764E1,0E0,0E0,0E0,1.9100952E-1,2.488144E0,0E0,0E0,0E0,1.616211E-1,0E0,0E0,2.5200195E0,0E0,0E0,0E0,7.600095E2,8.203644E1,2.0029552E1,2.8944988E1,2.8060379E1,3.1043867E1,0E0,0E0,0E0,0E0,0E0,0E0,0E0,0E0,0E0,0E0,0E0,0E0,0E0,0E0,0E0,0E0,0E0,0E0,0E0,0E0,0E0,0E0,0E0,0E0,0E0,0E0,0E0,0E0,0E0,0E0,0E0,0E0,0E0,0E0,0E0,0E0,0E0,0E0],"parents":[2147483647,0,0,1,1,2,2,3,3,4,4,5,5,6,6,7,7,8,8,9,9,10,10,11,11,12,12,13,13,14,14,15,15,16,16,17,17,18,18,19,19,20,20,21,21,22,22,23,23,24,24,25,25,26,26,27,27,28,28,30,30,31,31,32,32,33,33,34,34,35,35,36,36,37,37,38,38,39,39,43,43,44,44,48,48,51,51,55,55,56,56,57,57,58,58,59,59,60,60],"right_children":[2,4,6,8,10,12,14,16,18,20,22,24,26,28,30,32,34,36,38,40,42,44,46,48,50,52,54,56,58,-1,60,62,64,66,68,70,72,74,76,78,-1,-1,-1,80,82,-1,-1,-1,84,-1,-1,86,-1,-1,-1,88,90,92,94,96,98,-1,-1,-1,-1,-1,-1,-1,-1,-1,-1,-1,-1,-1,-1,-1,-1,-1,-1,-1,-1,-1,-1,-1,-1,-1,-1,-1,-1,-1,-1,-1,-1,-1,-1,-1,-1,-1,-1],"split_conditions":[8.249624E-3,1E0,1E0,1.826185E1,1E0,1E0,1.0318235E0,1E0,1E0,1E0,1E0,1E0,1E0,2.354E1,2E0,1E0,1E0,1E0,1E0,1E0,1E0,1E0,1E0,8.49E0,1E0,1E0,8.49E0,1E0,4.29E1,-3.6332414E-1,5.0578452E2,7.35E0,1E0,1E0,1.299E1,1.8281551E1,1E0,1E0,1E0,1E0,-4.3792292E-1,-4.947748E-1,-3.833169E-1,1E0,1E0,-3.8925105E-1,-3.121967E-1,-4.5258802E-1,1E0,-3.600171E-1,-3.0812156E-1,8.24E0,-3.151971E-1,-3.5618123E-1,-3.1334376E-1,7.970547E-3,7.625E3,2.8934E2,1.0050731E1,1.267E1,1.0269E4,1.4375697E-1,4.250569E-2,1.703479E-2,-3.9525545E-1,2.3050377E-2,-4.6079484E-1,-4.2405683E-1,-3.6233044E-1,3.2510176E-2,-2.6958954E-2,2.194366E-2,-3.7157694E-1,1.2468826E-2,-3.4857234E-1,-3.701259E-1,-3.4337062E-1,-4.4313468E-2,-4.1245285E-1,-5.664954E-1,-4.578567E-1,-4.5169753E-1,-3.4462747E-1,-3.975913E-1,-3.6792135E-1,-4.36958E-1,-3.4854156E-1,3.737349E-2,-4.2895973E-1,9.213977E-2,3.806488E-2,5.5193376E-2,-3.7541662E-3,-3.9265174E-3,-5.6946915E-2,9.7217E-2,2.0917362E-2,-9.9615484E-2,3.712767E-2],"split_indices":[1,65,1,7,56,51,1,63,70,55,69,69,48,7,1,50,56,55,71,63,72,72,68,3,68,50,3,2,11,0,9,3,48,55,3,3,56,72,68,58,0,0,0,71,71,0,0,0,56,0,0,3,0,0,0,2,6,9,8,7,10,0,0,0,0,0,0,0,0,0,0,0,0,0,0,0,0,0,0,0,0,0,0,0,0,0,0,0,0,0,0,0,0,0,0,0,0,0,0],"split_type":[0,0,0,0,0,0,0,0,0,0,0,0,0,0,0,0,0,0,0,0,0,0,0,0,0,0,0,0,0,0,0,0,0,0,0,0,0,0,0,0,0,0,0,0,0,0,0,0,0,0,0,0,0,0,0,0,0,0,0,0,0,0,0,0,0,0,0,0,0,0,0,0,0,0,0,0,0,0,0,0,0,0,0,0,0,0,0,0,0,0,0,0,0,0,0,0,0,0,0],"sum_hessian":[1.6092781E5,1.3022545E5,3.070236E4,1.2815697E5,2.0684841E3,5.774875E3,2.4927484E4,6.204719E4,6.610978E4,1.6128038E3,4.5568027E2,2.0242136E3,3.7506614E3,2.171203E4,3.2154556E3,5.700523E4,5.0419604E3,4.8127836E4,1.7981947E4,1.4959731E3,1.1683067E2,2.6028354E2,1.9539674E2,1.0497478E3,9.744658E2,2.4222039E3,1.3284574E3,1.5797956E4,5.9140723E3,6.292789E2,2.5861765E3,5.1020527E4,5.984702E3,4.403456E3,6.385045E2,3.802227E4,1.0105567E4,1.6369427E4,1.6125197E3,1.4380243E3,5.7948925E1,5.131024E1,6.552043E1,1.2717131E2,1.3311223E2,1.3122914E2,6.41676E1,6.684556E1,9.829023E2,7.621784E2,2.1228745E2,2.0388074E3,3.8339648E2,5.9600964E1,1.2688564E3,3.6654531E3,1.2132503E4,2.0956025E3,3.8184697E3,1.989674E3,5.965026E2,2.593203E3,4.8427324E4,5.357689E3,6.270133E2,4.170685E3,2.3277121E2,2.0726534E2,4.312392E2,2.7773383E4,1.0248885E4,8.522198E3,1.5833685E3,1.4862825E4,1.5066017E3,5.1981256E2,1.092707E3,1.3882045E3,4.981975E1,2.5652023E1,1.01519295E2,7.030447E1,6.280776E1,2.2902293E2,7.5387933E2,4.4762688E1,1.9940448E3,3.3190005E3,3.4645264E2,3.5843088E3,8.548194E3,9.406541E2,1.1549485E3,1.5821578E3,2.236312E3,6.3847473E2,1.3511992E3,3.0761505E2,2.8888757E2],"tree_param":{"num_deleted":"0","num_feature":"73","num_nodes":"99","size_leaf_vector":"1"}},{"base_weights":[-1.2803736E-2,5.739627E-2,-8.055129E-2,8.344546E-2,-1.7572574E-1,-3.409224E-4,-1.0912118E0,6.1989024E-2,2.6636428E-1,-4.7951832E-2,-1.2697484E0,2.657653E-2,-1.0934782E0,-1.3095846E0,-1.081536E0,6.426546E-2,-4.6810195E-1,2.9097244E-1,-3.0254784E-1,1.1507277E-2,-1.5087043E0,-1.3509474E0,-1.1802385E0,-2.7125122E-2,1.6069883E-1,-3.548107E-1,-3.226314E-1,-4.0231892E-1,-3.2126963E-1,-3.4037927E-1,-1.073262E0,7.0917465E-2,-4.6763417E-1,2.3842399E-1,4.6548328E-1,-1.0715091E-1,-4.6066773E-1,4.455056E-2,-1.4951164E0,-1.5779473E0,-3.88032E-1,-1.4064449E0,-3.569132E-1,-3.6305696E-1,-3.038507E-1,1.318732E-2,-1.6818611E-1,1.9965065E-1,-1.4944269E-2,-1.094599E0,-3.1701112E-1,4.0578745E-2,4.4476786E-3,-9.216857E-2,-3.8439268E-1,3.8904782E-2,9.757589E-2,1.5880196E-1,7.369442E-2,3.777998E-2,-2.4797288E-1,1.6629884E-2,-4.418903E-1,-4.6817622E-1,-3.83966E-1,-5.152151E-1,-4.274963E-1,-4.4803587E-1,-3.8604644E-1,2.0902295E-2,-2.63957E-2,5.8408757E-3,-3.9342886E-1,6.3356E-2,-1.01728566E-1,-3.3652744E-1,2.8176788E-2,-3.3226424E-1,-3.1411624E-1],"categories":[],"categories_nodes":[],"categories_segments":[],"categories_sizes":[],"default_left":[0,0,0,0,0,0,0,0,0,0,0,0,0,0,0,0,0,0,0,0,0,0,0,0,0,0,0,0,0,0,0,0,0,0,0,0,0,0,0,0,0,0,0,0,0,0,0,0,0,0,0,0,0,0,0,0,0,0,0,0,0,0,0,0,0,0,0,0,0,0,0,0,0,0,0,0,0,0,0],"id":14,"left_children":[1,3,5,7,9,11,13,15,17,19,21,23,25,27,29,31,-1,33,35,37,39,41,43,45,47,-1,-1,-1,-1,-1,49,51,53,55,57,59,-1,61,63,65,-1,67,-1,-1,-1,69,71,73,75,77,-1,-1,-1,-1,-1,-1,-1,-1,-1,-1,-1,-1,-1,-1,-1,-1,-1,-1,-1,-1,-1,-1,-1,-1,-1,-1,-1,-1,-1],"loss_changes":[7.4206116E2,4.6535065E2,6.4367617E3,2.7050757E2,1.076611E3,2.1646316E3,1.0919922E1,2.279367E2,1.0139172E2,5.99122E2,4.2596436E0,5.1713403E2,1.5737305E0,3.894043E-1,1.2392578E0,2.180096E2,0E0,6.3498962E1,7.223546E1,3.3008127E2,1.9805298E0,2.0440674E0,7.349243E-1,2.9155295E2,1.4044904E2,0E0,0E0,0E0,0E0,0E0,5.600586E-1,2.1960709E2,9.894035E1,5.0313965E1,2.2390717E1,4.378213E1,0E0,1.0722032E2,7.751465E-3,1.8095398E0,0E0,1.2376099E0,0E0,0E0,0E0,2.2789574E2,2.4447883E3,1.0449628E2,4.4919992E2,1.303711E-1,0E0,0E0,0E0,0E0,0E0,0E0,0E0,0E0,0E0,0E0,0E0,0E0,0E0,0E0,0E0,0E0,0E0,0E0,0E0,0E0,0E0,0E0,0E0,0E0,0E0,0E0,0E0,0E0,0E0],"parents":[2147483647,0,0,1,1,2,2,3,3,4,4,5,5,6,6,7,7,8,8,9,9,10,10,11,11,12,12,13,13,14,14,15,15,17,17,18,18,19,19,20,20,21,21,22,22,23,23,24,24,30,30,31,31,32,32,33,33,34,34,35,35,37,37,38,38,39,39,41,41,45,45,46,46,47,47,48,48,49,49],"right_children":[2,4,6,8,10,12,14,16,18,20,22,24,26,28,30,32,-1,34,36,38,40,42,44,46,48,-1,-1,-1,-1,-1,50,52,54,56,58,60,-1,62,64,66,-1,68,-1,-1,-1,70,72,74,76,78,-1,-1,-1,-1,-1,-1,-1,-1,-1,-1,-1,-1,-1,-1,-1,-1,-1,-1,-1,-1,-1,-1,-1,-1,-1,-1,-1,-1,-1],"split_conditions":[1E0,1E0,1E0,7.32E2,1E0,1E0,8.24E0,7.2914197E2,1E0,1E0,1E0,6.570593E4,1.100661E1,1E0,1.100661E1,1E0,-4.6810195E-1,7.72E2,1E0,1E0,8.249624E-3,2.5457673E-2,1E0,1E0,8.249624E-3,-3.548107E-1,-3.226314E-1,-4.0231892E-1,-3.2126963E-1,-3.4037927E-1,1E0,1.0050731E1,1E0,9.566E3,1E0,1E0,-4.6066773E-1,1E0,8.249624E-3,1E0,-3.88032E-1,1E0,-3.569132E-1,-3.6305696E-1,-3.038507E-1,1E0,1E0,1E0,1E0,8.249624E-3,-3.1701112E-1,4.0578745E-2,4.4476786E-3,-9.216857E-2,-3.8439268E-1,3.8904782E-2,9.757589E-2,1.5880196E-1,7.369442E-2,3.777998E-2,-2.4797288E-1,1.6629884E-2,-4.418903E-1,-4.6817622E-1,-3.83966E-1,-5.152151E-1,-4.274963E-1,-4.4803587E-1,-3.8604644E-1,2.0902295E-2,-2.63957E-2,5.8408757E-3,-3.9342886E-1,6.3356E-2,-1.01728566E-1,-3.3652744E-1,2.8176788E-2,-3.3226424E-1,-3.1411624E-1],"split_indices":[51,58,48,12,56,50,3,12,53,55,69,0,3,69,3,65,0,12,52,63,1,1,68,55,1,0,0,0,0,0,71,8,56,10,50,50,0,60,1,69,0,72,0,0,0,72,56,65,1,1,0,0,0,0,0,0,0,0,0,0,0,0,0,0,0,0,0,0,0,0,0,0,0,0,0,0,0,0,0],"split_type":[0,0,0,0,0,0,0,0,0,0,0,0,0,0,0,0,0,0,0,0,0,0,0,0,0,0,0,0,0,0,0,0,0,0,0,0,0,0,0,0,0,0,0,0,0,0,0,0,0,0,0,0,0,0,0,0,0,0,0,0,0,0,0,0,0,0,0,0,0,0,0,0,0,0,0,0,0,0,0],"sum_hessian":[1.5602833E5,7.66273E4,7.940104E4,6.892609E4,7.7012007E3,7.35637E4,5.837332E3,6.169105E4,7.235042E3,6.8967534E3,8.0444696E2,7.179675E4,1.7669503E3,2.419696E2,5.5953623E3,6.1605566E4,8.5483864E1,6.9355356E3,2.9950644E2,6.6279585E3,2.687952E2,4.1441656E2,3.900304E2,5.1269566E4,2.0527188E4,2.8631702E2,1.4806333E3,2.0969588E2,3.2273727E1,7.36438E2,4.8589243E3,6.0845492E4,7.600752E2,5.3322603E3,1.6032756E3,2.5947412E2,4.003231E1,6.486663E3,1.4129512E2,1.9858667E2,7.020853E1,3.0255457E2,1.11861984E2,3.2555377E2,6.44766E1,3.987499E4,1.1394577E4,1.680112E4,3.7260688E3,2.094651E3,2.7642734E3,2.8337318E4,3.2508174E4,6.360614E2,1.2401383E2,2.3685142E3,2.9637458E3,1.241301E3,3.6197455E2,1.966025E2,6.2871624E1,6.441434E3,4.5229156E1,1.03546486E2,3.7748634E1,9.853524E1,1.0005144E2,1.685069E2,1.3404767E2,2.5588633E4,1.4286357E4,9.788795E3,1.6057819E3,1.6449498E4,3.516198E2,3.328445E2,3.3932244E3,1.6287775E3,4.6587338E2],"tree_param":{"num_deleted":"0","num_feature":"73","num_nodes":"79","size_leaf_vector":"1"}},{"base_weights":[-1.2062818E-2,4.1533962E-2,-8.210558E-2,-3.3600267E-2,9.563077E-2,9.885562E-4,-1.1300997E0,3.4144305E-2,-1.0214928E-1,1.3234887E-1,-3.4635287E-2,6.4172275E-2,-1.1481763E0,-1.2596823E0,-1.1065701E0,4.4154752E-2,-1.280842E0,-8.862523E-2,-1.3852112E0,1.8728662E-1,6.0393386E-2,-8.074304E-2,8.4867276E-2,7.821239E-2,-1.718499E-1,-3.9380136E-1,-1.1391975E0,-1.2908536E0,-3.343091E-1,-1.1340944E0,-1.0781925E0,5.2823246E-2,-1.4303286E0,-1.3305055E0,-6.5504365E-2,-7.6406434E-2,-1.4686908E0,-1.701681E0,-1.2692378E0,2.8888246E-1,1.1769025E-1,-9.02362E-2,1.9972603E-1,-5.4594472E-2,-1.3006335E0,2.5323913E-1,6.0421918E-2,1.05749056E-1,-4.4655398E-2,-7.149904E-2,-3.6768392E-1,-3.564922E-1,-1.118324E0,-4.22396E-1,-3.741396E-1,-1.1487166E0,-3.2073796E-1,-3.2963908E-1,-3.0578214E-1,1.8051066E-2,-4.6361315E-1,-5.133978E-1,-3.7071112E-1,-2.2189463E-2,-4.0303865E-1,2.1097913E-1,-1.6635525E-1,-2.0701373E-2,-4.0304202E-1,-5.158108E-1,-4.1339445E-1,-5.3735745E-1,-3.1995684E-1,-4.0861142E-1,-3.2553363E-1,1.6376579E-1,7.9386964E-2,5.4758687E-2,-3.491823E-1,-2.0905022E-2,-2.1137576E-1,1.07532024E-1,3.773489E-2,2.307868E-3,-4.921635E-2,-4.3379375E-1,-3.5378167E-1,8.950319E-2,-1.9117036E-1,4.1103237E-3,5.104412E-2,3.3141695E-2,-3.5709208E-1,-9.992673E-3,-4.1665813E-1,-7.046265E-3,-4.2741883E-1,-3.4113228E-1,-3.0571043E-1,-3.4792873E-1,-3.20935E-1],"categories":[],"categories_nodes":[],"categories_segments":[],"categories_sizes":[],"default_left":[0,0,0,0,0,0,0,0,0,0,0,0,0,0,0,0,0,0,0,0,0,0,0,0,0,0,0,0,0,0,0,0,0,0,0,0,0,0,0,0,0,0,0,0,0,0,0,0,0,0,0,0,0,0,0,0,0,0,0,0,0,0,0,0,0,0,0,0,0,0,0,0,0,0,0,0,0,0,0,0,0,0,0,0,0,0,0,0,0,0,0,0,0,0,0,0,0,0,0,0,0],"id":15,"left_children":[1,3,5,7,9,11,13,15,17,19,21,23,25,27,29,31,33,35,37,39,41,43,45,47,49,-1,51,53,-1,55,57,59,61,63,65,67,69,71,73,75,77,79,81,83,85,87,89,91,93,95,-1,-1,97,-1,-1,99,-1,-1,-1,-1,-1,-1,-1,-1,-1,-1,-1,-1,-1,-1,-1,-1,-1,-1,-1,-1,-1,-1,-1,-1,-1,-1,-1,-1,-1,-1,-1,-1,-1,-1,-1,-1,-1,-1,-1,-1,-1,-1,-1,-1,-1],"loss_changes":[5.7066125E2,3.5002295E2,5.738345E3,1.6741005E2,2.3948376E2,4.433244E3,1.3366699E1,2.3873615E2,3.108028E2,1.543894E2,6.0672615E1,1.9179736E2,3.2045898E0,1.8986816E0,1.9838867E0,2.300893E2,8.183121E0,2.9890936E2,4.697235E0,1.5656659E2,3.5495245E2,2.5337125E2,1.2603382E1,1.848244E2,3.4356293E2,0E0,1.7717285E0,1.3182373E0,0E0,7.331543E-1,1.3583984E0,